{"learner":{"attributes":{"scikit_learn":"{\"_estimator_type\": \"classifier\"}"},"feature_names":[],"feature_types":[],"gradient_booster":{"model":{"cats":{"enc":[],"feature_segments":[],"sorted_idx":[]},"gbtree_model_param":{"num_parallel_tree":"1","num_trees":"200"},"iteration_indptr":[0,1,2,3,4,5,6,7,8,9,10,11,12,13,14,15,16,17,18,19,20,21,22,23,24,25,26,27,28,29,30,31,32,33,34,35,36,37,38,39,40,41,42,43,44,45,46,47,48,49,50,51,52,53,54,55,56,57,58,59,60,61,62,63,64,65,66,67,68,69,70,71,72,73,74,75,76,77,78,79,80,81,82,83,84,85,86,87,88,89,90,91,92,93,94,95,96,97,98,99,100,101,102,103,104,105,106,107,108,109,110,111,112,113,114,115,116,117,118,119,120,121,122,123,124,125,126,127,128,129,130,131,132,133,134,135,136,137,138,139,140,141,142,143,144,145,146,147,148,149,150,151,152,153,154,155,156,157,158,159,160,161,162,163,164,165,166,167,168,169,170,171,172,173,174,175,176,177,178,179,180,181,182,183,184,185,186,187,188,189,190,191,192,193,194,195,196,197,198,199,200],"tree_info":[0,0,0,0,0,0,0,0,0,0,0,0,0,0,0,0,0,0,0,0,0,0,0,0,0,0,0,0,0,0,0,0,0,0,0,0,0,0,0,0,0,0,0,0,0,0,0,0,0,0,0,0,0,0,0,0,0,0,0,0,0,0,0,0,0,0,0,0,0,0,0,0,0,0,0,0,0,0,0,0,0,0,0,0,0,0,0,0,0,0,0,0,0,0,0,0,0,0,0,0,0,0,0,0,0,0,0,0,0,0,0,0,0,0,0,0,0,0,0,0,0,0,0,0,0,0,0,0,0,0,0,0,0,0,0,0,0,0,0,0,0,0,0,0,0,0,0,0,0,0,0,0,0,0,0,0,0,0,0,0,0,0,0,0,0,0,0,0,0,0,0,0,0,0,0,0,0,0,0,0,0,0,0,0,0,0,0,0,0,0,0,0,0,0,0,0,0,0,0,0],"trees":[{"base_weights":[4.1169465E-2,2.2462897E-1,-4.6273637E-1,2.7365854E-2,8.478569E-2,-4.642105E-2,-1.5487315E-1,-4.4363637E-2,6.456457E-3,4.3783784E-3,-1.2601431E-2],"categories":[],"categories_nodes":[],"categories_segments":[],"categories_sizes":[],"default_left":[0,0,0,0,0,0,0,0,0,0,0],"id":0,"left_children":[1,3,5,-1,7,-1,9,-1,-1,-1,-1],"loss_changes":[1.5630459E1,1.15315075E1,1.4019663E1,0E0,2.1905268E1,0E0,3.1922095E0,0E0,0E0,0E0,0E0],"parents":[2147483647,0,0,1,1,2,2,4,4,6,6],"right_children":[2,4,6,-1,8,-1,10,-1,-1,-1,-1],"split_conditions":[1.2723871E-2,1.8221825E-2,9.886463E-1,2.7365854E-2,1E0,-4.642105E-2,2.5350744E-2,-4.4363637E-2,6.456457E-3,4.3783784E-3,-1.2601431E-2],"split_indices":[9,1,9,0,1,0,8,0,0,0,0],"split_type":[0,0,0,0,0,0,0,0,0,0,0],"sum_hessian":[1.656E2,1.2265E2,4.295E1,1.85E1,1.0415E2,7.5E0,3.545E1,6.25E0,9.79E1,1.65E1,1.895E1],"tree_param":{"num_deleted":"0","num_feature":"13","num_nodes":"11","size_leaf_vector":"1"}},{"base_weights":[-6.7368954E-2,-4.9348542E-1,1.3531297E-1,-2.0671521E-1,-4.7747675E-2,7.130394E-1,-6.7779412E-3,1.4064547E-3,-2.600776E-2,2.5742408E-2,7.4668787E-3,-5.532614E-3,1.6613873E-2],"categories":[],"categories_nodes":[],"categories_segments":[],"categories_sizes":[],"default_left":[0,0,0,0,0,0,0,0,0,0,0,0,0],"id":1,"left_children":[1,3,5,7,-1,9,11,-1,-1,-1,-1,-1,-1],"loss_changes":[1.4572416E1,1.5931548E1,9.542278E0,7.9697065E0,0E0,7.78944E-1,9.324121E0,0E0,0E0,0E0,0E0,0E0,0E0],"parents":[2147483647,0,0,1,1,2,2,3,3,5,5,6,6],"right_children":[2,4,6,8,-1,10,12,-1,-1,-1,-1,-1,-1],"split_conditions":[1E0,1.2723871E-2,1.1737626E-1,1.2723871E-2,-4.7747675E-2,1.3998936E-2,9.856065E-1,1.4064547E-3,-2.600776E-2,2.5742408E-2,7.4668787E-3,-5.532614E-3,1.6613873E-2],"split_indices":[3,3,2,9,0,10,10,0,0,0,0,0,0],"split_type":[0,0,0,0,0,0,0,0,0,0,0,0,0],"sum_hessian":[1.6393794E2,5.2394615E1,1.1154332E2,4.364611E1,8.748506E0,2.0848896E1,9.069443E1,3.2547634E1,1.1098476E1,1.4099189E1,6.7497067E0,7.029542E1,2.0399012E1],"tree_param":{"num_deleted":"0","num_feature":"13","num_nodes":"13","size_leaf_vector":"1"}},{"base_weights":[3.9792392E-2,-3.682027E-1,2.541529E-1,-8.1941396E-2,-4.671689E-2,4.0215854E-2,6.9771755E-1,4.2188377E-3,-1.2719366E-2,-8.694171E-3,1.5333783E-2,3.2656893E-2,-2.2152201E-3],"categories":[],"categories_nodes":[],"categories_segments":[],"categories_sizes":[],"default_left":[0,0,0,0,0,0,0,0,0,0,0,0,0],"id":2,"left_children":[1,3,5,7,-1,9,11,-1,-1,-1,-1,-1,-1],"loss_changes":[1.4537244E1,1.8648857E1,1.011224E1,3.8767323E0,0E0,1.2242342E1,1.1033672E1,0E0,0E0,0E0,0E0,0E0,0E0],"parents":[2147483647,0,0,1,1,2,2,3,3,5,5,6,6],"right_children":[2,4,6,8,-1,10,12,-1,-1,-1,-1,-1,-1],"split_conditions":[9.758521E-1,1.2723871E-2,9.6405774E-1,9.94615E-3,-4.671689E-2,9.891623E-1,9.94615E-3,4.2188377E-3,-1.2719366E-2,-8.694171E-3,1.5333783E-2,3.2656893E-2,-2.2152201E-3],"split_indices":[3,3,6,11,0,8,11,0,0,0,0,0,0],"split_type":[0,0,0,0,0,0,0,0,0,0,0,0,0],"sum_hessian":[1.6247087E2,5.498409E1,1.0748678E2,4.6241474E1,8.742616E0,7.444071E1,3.3046066E1,2.8195084E1,1.8046389E1,4.384531E1,3.0595404E1,2.1647343E1,1.1398723E1],"tree_param":{"num_deleted":"0","num_feature":"13","num_nodes":"13","size_leaf_vector":"1"}},{"base_weights":[3.22771E-2,-3.868787E-1,2.3725374E-1,-8.353395E-2,-4.6220835E-2,5.013047E-1,-1.1426875E-1,6.796566E-3,-2.4017533E-2,4.1034333E-2,8.719836E-3,-4.3107275E-2,3.4265E-3],"categories":[],"categories_nodes":[],"categories_segments":[],"categories_sizes":[],"default_left":[0,0,0,0,0,0,0,0,0,0,0,0,0],"id":3,"left_children":[1,3,5,7,-1,9,11,-1,-1,-1,-1,-1,-1],"loss_changes":[1.4576202E1,1.866901E1,1.0865318E1,1.0816459E1,0E0,1.0805979E1,1.5922155E1,0E0,0E0,0E0,0E0,0E0,0E0],"parents":[2147483647,0,0,1,1,2,2,3,3,5,5,6,6],"right_children":[2,4,6,8,-1,10,12,-1,-1,-1,-1,-1,-1],"split_conditions":[1E0,1.2723871E-2,1.3360421E-2,1.2723871E-2,-4.6220835E-2,1.8221825E-2,1E0,6.796566E-3,-2.4017533E-2,4.1034333E-2,8.719836E-3,-4.3107275E-2,3.4265E-3],"split_indices":[3,3,5,9,0,1,5,0,0,0,0,0,0],"split_type":[0,0,0,0,0,0,0,0,0,0,0,0,0],"sum_hessian":[1.6603995E2,5.346703E1,1.12572914E2,4.42407E1,9.226328E0,6.428534E1,4.8287575E1,3.1547714E1,1.2692987E1,1.01443205E1,5.4141018E1,5.7481856E0,4.253939E1],"tree_param":{"num_deleted":"0","num_feature":"13","num_nodes":"13","size_leaf_vector":"1"}},{"base_weights":[-1.7300632E-2,-4.8014984E-1,2.1976064E-1,-1.6961634E-1,-4.6356816E-2,1.03871934E-1,9.1891295E-1,1.8275362E-3,-1.6119393E-2,2.2750193E-2,-9.930722E-4,3.6269885E-2,8.81219E-3],"categories":[],"categories_nodes":[],"categories_segments":[],"categories_sizes":[],"default_left":[0,0,0,0,0,0,0,0,0,0,0,0,0],"id":4,"left_children":[1,3,5,7,-1,9,11,-1,-1,-1,-1,-1,-1],"loss_changes":[1.882441E1,1.823452E1,8.6299515E0,4.2418027E0,0E0,9.1659E0,1.6308508E0,0E0,0E0,0E0,0E0,0E0,0E0],"parents":[2147483647,0,0,1,1,2,2,3,3,5,5,6,6],"right_children":[2,4,6,8,-1,10,12,-1,-1,-1,-1,-1,-1],"split_conditions":[9.758521E-1,1.2723871E-2,1E0,9.94615E-3,-4.6356816E-2,8.406848E-2,9.94615E-3,1.8275362E-3,-1.6119393E-2,2.2750193E-2,-9.930722E-4,3.6269885E-2,8.81219E-3],"split_indices":[3,3,12,11,0,2,11,0,0,0,0,0,0],"split_type":[0,0,0,0,0,0,0,0,0,0,0,0,0],"sum_hessian":[1.6692677E2,5.6272476E1,1.106543E2,4.5582607E1,1.068987E1,9.7259224E1,1.3395073E1,2.854104E1,1.7041565E1,1.564143E1,8.16178E1,7.5460773E0,5.8489957E0],"tree_param":{"num_deleted":"0","num_feature":"13","num_nodes":"13","size_leaf_vector":"1"}},{"base_weights":[-4.6332907E-2,-1.3736197E-1,6.684715E-1,4.7992396E-1,-2.598431E-1,3.8153052E-2,3.0214863E-3,4.2692024E-2,-8.808384E-3,-4.6800103E-2,-3.951998E-3],"categories":[],"categories_nodes":[],"categories_segments":[],"categories_sizes":[],"default_left":[0,0,0,0,0,0,0,0,0,0,0],"id":5,"left_children":[1,3,5,7,9,-1,-1,-1,-1,-1,-1],"loss_changes":[1.1116419E1,1.1769547E1,5.9172325E0,1.99016E1,2.0663918E1,0E0,0E0,0E0,0E0,0E0,0E0],"parents":[2147483647,0,0,1,1,2,2,3,3,4,4],"right_children":[2,4,6,8,10,-1,-1,-1,-1,-1,-1],"split_conditions":[9.2658764E-1,1.8221825E-2,2.5350744E-2,1.3360421E-2,9.54051E-1,3.8153052E-2,3.0214863E-3,4.2692024E-2,-8.808384E-3,-4.6800103E-2,-3.951998E-3],"split_indices":[12,1,8,5,1,0,0,0,0,0,0],"split_type":[0,0,0,0,0,0,0,0,0,0,0],"sum_hessian":[1.6846951E2,1.5124419E2,1.7225319E1,2.366917E1,1.2757502E2,6.892723E0,1.0332595E1,1.00833645E1,1.3585807E1,9.227824E0,1.183472E2],"tree_param":{"num_deleted":"0","num_feature":"13","num_nodes":"11","size_leaf_vector":"1"}},{"base_weights":[3.1309664E-2,-7.129102E-2,7.9649425E-1,9.6913E-2,-5.5666465E-1,-8.4451195E-3,3.763868E-2,2.2884155E-2,-1.2807141E-3,-4.384002E-2,-7.7063288E-3],"categories":[],"categories_nodes":[],"categories_segments":[],"categories_sizes":[],"default_left":[0,0,0,0,0,0,0,0,0,0,0],"id":6,"left_children":[1,3,5,7,9,-1,-1,-1,-1,-1,-1],"loss_changes":[1.3355667E1,1.2310441E1,1.0937177E1,1.0598725E1,9.253062E0,0E0,0E0,0E0,0E0,0E0,0E0],"parents":[2147483647,0,0,1,1,2,2,3,3,4,4],"right_children":[2,4,6,8,10,-1,-1,-1,-1,-1,-1],"split_conditions":[1E0,1.2723871E-2,1.3063872E-1,1.8221825E-2,1E0,-8.4451195E-3,3.763868E-2,2.2884155E-2,-1.2807141E-3,-4.384002E-2,-7.7063288E-3],"split_indices":[12,9,2,1,9,0,0,0,0,0,0],"split_type":[0,0,0,0,0,0,0,0,0,0,0],"sum_hessian":[1.6389986E2,1.4577504E2,1.8124819E1,1.0898824E2,3.6786793E1,5.4401402E0,1.2684678E1,1.7714228E1,9.127401E1,6.978342E0,2.980845E1],"tree_param":{"num_deleted":"0","num_feature":"13","num_nodes":"11","size_leaf_vector":"1"}},{"base_weights":[-3.8264465E-2,-4.6961218E-1,1.6736475E-1,-1.7038463E-1,-4.4720165E-2,7.291505E-2,2.4784634E-2,1.8897536E-3,-1.5963217E-2,-2.4069252E-3,1.4715154E-2],"categories":[],"categories_nodes":[],"categories_segments":[],"categories_sizes":[],"default_left":[0,0,0,0,0,0,0,0,0,0,0],"id":7,"left_children":[1,3,5,7,-1,9,-1,-1,-1,-1,-1],"loss_changes":[1.5274969E1,1.6008175E1,6.81086E0,4.053217E0,0E0,6.840735E0,0E0,0E0,0E0,0E0,0E0],"parents":[2147483647,0,0,1,1,2,2,3,3,5,5],"right_children":[2,4,6,8,-1,10,-1,-1,-1,-1,-1],"split_conditions":[1E0,1.2723871E-2,1E0,9.94615E-3,-4.4720165E-2,9.6405774E-1,2.4784634E-2,1.8897536E-3,-1.5963217E-2,-2.4069252E-3,1.4715154E-2],"split_indices":[3,3,12,11,0,6,0,0,0,0,0],"split_type":[0,0,0,0,0,0,0,0,0,0,0],"sum_hessian":[1.6741931E2,5.36885E1,1.1373081E2,4.355269E1,1.0135814E1,1.0181106E2,1.1919759E1,2.6972742E1,1.6579945E1,7.514859E1,2.6662462E1],"tree_param":{"num_deleted":"0","num_feature":"13","num_nodes":"11","size_leaf_vector":"1"}},{"base_weights":[2.2050453E-2,2.2395112E-1,-3.383508E-1,-4.9291763E-2,6.285353E-1,-4.810183E-2,-2.1234693E-4,-1.7291484E-2,5.1663425E-3,2.7602077E-2,-4.1070953E-3,1.7595096E-2,-1.5763132E-2],"categories":[],"categories_nodes":[],"categories_segments":[],"categories_sizes":[],"default_left":[0,0,0,0,0,0,0,0,0,0,0,0,0],"id":8,"left_children":[1,3,5,7,9,-1,11,-1,-1,-1,-1,-1,-1],"loss_changes":[1.2217197E1,1.2210182E1,2.51712E1,8.032994E0,1.036186E1,0E0,1.585463E1,0E0,0E0,0E0,0E0,0E0,0E0],"parents":[2147483647,0,0,1,1,2,2,3,3,4,4,6,6],"right_children":[2,4,6,8,10,-1,12,-1,-1,-1,-1,-1,-1],"split_conditions":[9.94615E-3,1E0,1E0,1.8181819E-1,1.2723871E-2,-4.810183E-2,2.5350744E-2,-1.7291484E-2,5.1663425E-3,2.7602077E-2,-4.1070953E-3,1.7595096E-2,-1.5763132E-2],"split_indices":[11,8,11,2,9,0,8,0,0,0,0,0,0],"split_type":[0,0,0,0,0,0,0,0,0,0,0,0,0],"sum_hessian":[1.6428773E2,1.0631727E2,5.7970463E1,6.406482E1,4.225245E1,1.04614E1,4.750906E1,1.8408907E1,4.565591E1,3.0589622E1,1.16628275E1,2.2060892E1,2.544817E1],"tree_param":{"num_deleted":"0","num_feature":"13","num_nodes":"13","size_leaf_vector":"1"}},{"base_weights":[6.719501E-2,-3.13774E-1,2.5663596E-1,-4.5047505E-3,-4.331429E-2,9.177308E-2,7.185037E-1,1.5215336E-2,-3.6648693E-3,2.7844505E-2,-1.7074421E-3,1.4141918E-2,2.923731E-2],"categories":[],"categories_nodes":[],"categories_segments":[],"categories_sizes":[],"default_left":[0,0,0,0,0,0,0,0,0,0,0,0,0],"id":9,"left_children":[1,3,5,7,-1,9,11,-1,-1,-1,-1,-1,-1],"loss_changes":[1.1997868E1,1.8747229E1,8.101866E0,2.7377937E0,0E0,1.0914199E1,4.5159435E-1,0E0,0E0,0E0,0E0,0E0,0E0],"parents":[2147483647,0,0,1,1,2,2,3,3,5,5,6,6],"right_children":[2,4,6,8,-1,10,12,-1,-1,-1,-1,-1,-1],"split_conditions":[1E0,1.2723871E-2,9.856065E-1,1.8221825E-2,-4.331429E-2,8.406848E-2,3.373069E-1,1.5215336E-2,-3.6648693E-3,2.7844505E-2,-1.7074421E-3,1.4141918E-2,2.923731E-2],"split_indices":[3,3,10,1,0,2,2,0,0,0,0,0,0],"split_type":[0,0,0,0,0,0,0,0,0,0,0,0,0],"sum_hessian":[1.6224791E2,5.292287E1,1.0932504E2,4.3336063E1,9.586805E0,8.281228E1,2.6512762E1,6.3872848E0,3.694878E1,1.1221851E1,7.159042E1,1.6980316E1,9.532445E0],"tree_param":{"num_deleted":"0","num_feature":"13","num_nodes":"13","size_leaf_vector":"1"}},{"base_weights":[4.8913654E-2,1.9098824E-1,-3.7261534E-1,1.2479925E-1,2.9179333E-2,-4.409813E-2,-2.2563271E-2,1.7139545E-2,1.0206095E-3,-1.8642943E-2,9.206584E-3],"categories":[],"categories_nodes":[],"categories_segments":[],"categories_sizes":[],"default_left":[0,0,0,0,0,0,0,0,0,0,0],"id":10,"left_children":[1,3,5,7,-1,-1,9,-1,-1,-1,-1],"loss_changes":[1.0286985E1,6.1137896E0,1.6032118E1,4.716073E0,0E0,0E0,7.3606668E0,0E0,0E0,0E0,0E0],"parents":[2147483647,0,0,1,1,2,2,3,3,6,6],"right_children":[2,4,6,8,-1,-1,10,-1,-1,-1,-1],"split_conditions":[1.2723871E-2,5.735589E-1,9.9005383E-1,6.950409E-2,2.9179333E-2,-4.409813E-2,9.506071E-1,1.7139545E-2,1.0206095E-3,-1.8642943E-2,9.206584E-3],"split_indices":[9,2,9,2,0,0,3,0,0,0,0],"split_type":[0,0,0,0,0,0,0,0,0,0,0],"sum_hessian":[1.6830203E2,1.27226425E2,4.107561E1,1.1978629E2,7.44013E0,8.179522E0,3.2896088E1,1.7891367E1,1.0189493E2,1.1368558E1,2.152753E1],"tree_param":{"num_deleted":"0","num_feature":"13","num_nodes":"11","size_leaf_vector":"1"}},{"base_weights":[-7.1937524E-2,-4.963528E-1,1.417715E-1,-2.4147712E-1,-4.2488873E-2,3.9772682E-2,8.204612E-1,-1.6066236E-2,8.962678E-3,2.0911742E-2,-2.3414749E-3,4.1672112E-3,3.5189282E-2],"categories":[],"categories_nodes":[],"categories_segments":[],"categories_sizes":[],"default_left":[0,0,0,0,0,0,0,0,0,0,0,0,0],"id":11,"left_children":[1,3,5,7,-1,9,11,-1,-1,-1,-1,-1,-1],"loss_changes":[1.5510312E1,1.22472105E1,7.4997106E0,7.939106E0,0E0,8.09526E0,2.711115E0,0E0,0E0,0E0,0E0,0E0,0E0],"parents":[2147483647,0,0,1,1,2,2,3,3,5,5,6,6],"right_children":[2,4,6,8,-1,10,12,-1,-1,-1,-1,-1,-1],"split_conditions":[1E0,1.2723871E-2,1E0,1E0,-4.2488873E-2,8.406848E-2,1.624316E-1,-1.6066236E-2,8.962678E-3,2.0911742E-2,-2.3414749E-3,4.1672112E-3,3.5189282E-2],"split_indices":[3,3,12,8,0,2,2,0,0,0,0,0,0],"split_type":[0,0,0,0,0,0,0,0,0,0,0,0,0],"sum_hessian":[1.6627971E2,5.5271656E1,1.1100805E2,4.5513077E1,9.758578E0,9.872945E1,1.2278604E1,2.9841948E1,1.5671131E1,1.3900029E1,8.482942E1,5.4263635E0,6.85224E0],"tree_param":{"num_deleted":"0","num_feature":"13","num_nodes":"13","size_leaf_vector":"1"}},{"base_weights":[-1.7478826E-2,-1.0595904E-1,6.420974E-1,-4.0147483E-2,-4.028944E-2,2.531119E-2,4.0117004E-3,-1.037206E-2,3.7426476E-3],"categories":[],"categories_nodes":[],"categories_segments":[],"categories_sizes":[],"default_left":[0,0,0,0,0,0,0,0,0],"id":12,"left_children":[1,3,5,7,-1,-1,-1,-1,-1],"loss_changes":[9.967939E0,1.1940496E1,1.5448151E0,7.5929885E0,0E0,0E0,0E0,0E0,0E0],"parents":[2147483647,0,0,1,1,2,2,3,3],"right_children":[2,4,6,8,-1,-1,-1,-1,-1],"split_conditions":[1E0,1.3789255E-2,3.0085603E-2,1E0,-4.028944E-2,2.531119E-2,4.0117004E-3,-1.037206E-2,3.7426476E-3],"split_indices":[12,12,4,3,0,0,0,0,0],"split_type":[0,0,0,0,0,0,0,0,0],"sum_hessian":[1.6922693E2,1.5109193E2,1.8134996E1,1.4565051E2,5.441412E0,1.161816E1,6.5168357E0,5.0918064E1,9.473245E1],"tree_param":{"num_deleted":"0","num_feature":"13","num_nodes":"9","size_leaf_vector":"1"}},{"base_weights":[2.6135508E-2,-5.5225328E-2,7.317929E-1,5.408877E-1,-1.5302375E-1,3.208822E-2,4.8030834E-4,7.1436646E-3,2.516952E-2,3.1255884E-3,-1.3352448E-2],"categories":[],"categories_nodes":[],"categories_segments":[],"categories_sizes":[],"default_left":[0,0,0,0,0,0,0,0,0,0,0],"id":13,"left_children":[1,3,5,7,9,-1,-1,-1,-1,-1,-1],"loss_changes":[9.705534E0,8.713472E0,3.8683214E0,1.1685362E0,9.935382E0,0E0,0E0,0E0,0E0,0E0,0E0],"parents":[2147483647,0,0,1,1,2,2,3,3,4,4],"right_children":[2,4,6,8,10,-1,-1,-1,-1,-1,-1],"split_conditions":[1E0,6.950409E-2,9.94615E-3,8.529265E-1,1.3360421E-2,3.208822E-2,4.8030834E-4,7.1436646E-3,2.516952E-2,3.1255884E-3,-1.3352448E-2],"split_indices":[12,2,11,11,5,0,0,0,0,0,0],"split_type":[0,0,0,0,0,0,0,0,0,0,0],"sum_hessian":[1.6210492E2,1.4661845E2,1.5486462E1,1.8954687E1,1.2766377E2,9.564652E0,5.9218087E0,1.168781E1,7.2668777E0,6.801955E1,5.9644226E1],"tree_param":{"num_deleted":"0","num_feature":"13","num_nodes":"11","size_leaf_vector":"1"}},{"base_weights":[1.4682507E-2,1.3633434E-1,-3.6397764E-1,-3.853038E-2,4.029134E-1,-4.2819582E-2,-0E0,3.7804125E-3,-4.3412227E-2,2.3367135E-2,-6.376975E-3,-1.2460613E-2,7.340348E-3],"categories":[],"categories_nodes":[],"categories_segments":[],"categories_sizes":[],"default_left":[0,0,0,0,0,0,0,0,0,0,0,0,0],"id":14,"left_children":[1,3,5,7,9,-1,11,-1,-1,-1,-1,-1,-1],"loss_changes":[7.621087E0,6.0493784E0,1.5315363E1,1.8768085E1,1.2318662E1,0E0,3.4645019E0,0E0,0E0,0E0,0E0,0E0,0E0],"parents":[2147483647,0,0,1,1,2,2,3,3,4,4,6,6],"right_children":[2,4,6,8,10,-1,12,-1,-1,-1,-1,-1,-1],"split_conditions":[1.2723871E-2,9.966368E-1,1E0,2.5350744E-2,9.94615E-3,-4.2819582E-2,9.0635437E-1,3.7804125E-3,-4.3412227E-2,2.3367135E-2,-6.376975E-3,-1.2460613E-2,7.340348E-3],"split_indices":[9,8,9,8,11,0,3,0,0,0,0,0,0],"split_type":[0,0,0,0,0,0,0,0,0,0,0,0,0],"sum_hessian":[1.6277115E2,1.2476135E2,3.80098E1,7.569448E1,4.9066868E1,8.119495E0,2.9890305E1,6.921677E1,6.47772E0,3.0432364E1,1.8634504E1,1.0743534E1,1.914677E1],"tree_param":{"num_deleted":"0","num_feature":"13","num_nodes":"13","size_leaf_vector":"1"}},{"base_weights":[3.0566584E-2,1.7965724E-1,-3.8719848E-1,1.1823625E-1,2.8519992E-2,-4.055455E-2,-1.0479644E-1,2.1281138E-2,1.0534544E-3,7.034796E-3,-1.2733878E-2],"categories":[],"categories_nodes":[],"categories_segments":[],"categories_sizes":[],"default_left":[0,0,0,0,0,0,0,0,0,0,0],"id":15,"left_children":[1,3,5,7,-1,-1,9,-1,-1,-1,-1],"loss_changes":[1.0225812E1,5.2311645E0,1.0982744E1,5.4082537E0,0E0,0E0,4.121631E0,0E0,0E0,0E0,0E0],"parents":[2147483647,0,0,1,1,2,2,3,3,6,6],"right_children":[2,4,6,8,-1,-1,10,-1,-1,-1,-1],"split_conditions":[1.2723871E-2,5.9090906E-1,1E0,2.9429853E-2,2.8519992E-2,-4.055455E-2,2.5350744E-2,2.1281138E-2,1.0534544E-3,7.034796E-3,-1.2733878E-2],"split_indices":[9,2,9,2,0,0,8,0,0,0,0],"split_type":[0,0,0,0,0,0,0,0,0,0,0],"sum_hessian":[1.6094406E2,1.1998295E2,4.096111E1,1.13626884E2,6.356064E0,7.320375E0,3.364073E1,1.1705184E1,1.019217E2,1.6122704E1,1.7518028E1],"tree_param":{"num_deleted":"0","num_feature":"13","num_nodes":"11","size_leaf_vector":"1"}},{"base_weights":[-0E0,-9.442531E-2,7.292461E-1,5.109233E-1,-2.1858622E-1,3.1575E-2,2.6312282E-3,3.8848385E-2,4.8752376E-3,-4.3861322E-2,-2.9709938E-3],"categories":[],"categories_nodes":[],"categories_segments":[],"categories_sizes":[],"default_left":[0,0,0,0,0,0,0,0,0,0,0],"id":16,"left_children":[1,3,5,7,9,-1,-1,-1,-1,-1,-1],"loss_changes":[1.1217211E1,1.1100352E1,3.340335E0,5.97569E0,1.7507315E1,0E0,0E0,0E0,0E0,0E0,0E0],"parents":[2147483647,0,0,1,1,2,2,3,3,4,4],"right_children":[2,4,6,8,10,-1,-1,-1,-1,-1,-1],"split_conditions":[1E0,1.8221825E-2,9.94615E-3,1.1737626E-1,9.860011E-1,3.1575E-2,2.6312282E-3,3.8848385E-2,4.8752376E-3,-4.3861322E-2,-2.9709938E-3],"split_indices":[12,1,11,2,1,0,0,0,0,0,0],"split_type":[0,0,0,0,0,0,0,0,0,0,0],"sum_hessian":[1.6053047E2,1.4388344E2,1.6647041E1,2.301707E1,1.2086636E2,9.90658E0,6.7404613E0,5.14504E0,1.787203E1,8.411499E0,1.12454865E2],"tree_param":{"num_deleted":"0","num_feature":"13","num_nodes":"11","size_leaf_vector":"1"}},{"base_weights":[-7.6981853E-3,-1.04057446E-1,7.416128E-1,5.496658E-2,-4.1755587E-1,3.340586E-2,6.565601E-5,-4.842549E-3,1.2365546E-2,-4.6877593E-2,-4.6229767E-4],"categories":[],"categories_nodes":[],"categories_segments":[],"categories_sizes":[],"default_left":[0,0,0,0,0,0,0,0,0,0,0],"id":17,"left_children":[1,3,5,7,9,-1,-1,-1,-1,-1,-1],"loss_changes":[1.1557473E1,7.3531623E0,4.6623325E0,7.700684E0,2.2253994E1,0E0,0E0,0E0,0E0,0E0,0E0],"parents":[2147483647,0,0,1,1,2,2,3,3,4,4],"right_children":[2,4,6,8,10,-1,-1,-1,-1,-1,-1],"split_conditions":[1E0,9.94615E-3,9.94615E-3,1E0,1E0,3.340586E-2,6.565601E-5,-4.842549E-3,1.2365546E-2,-4.6877593E-2,-4.6229767E-4],"split_indices":[12,11,11,8,11,0,0,0,0,0,0],"split_type":[0,0,0,0,0,0,0,0,0,0,0],"sum_hessian":[1.5858046E2,1.4239189E2,1.6188566E1,9.4930305E1,4.7461594E1,9.827784E0,6.3607817E0,5.9278683E1,3.5651623E1,1.0642358E1,3.6819237E1],"tree_param":{"num_deleted":"0","num_feature":"13","num_nodes":"11","size_leaf_vector":"1"}},{"base_weights":[-2.1822607E-2,-3.779763E-1,1.5706731E-1,-1.06638424E-1,-4.102566E-2,-3.438295E-2,4.625168E-1,-9.796435E-3,3.46836E-3,1.8627608E-2,-8.440997E-3,8.000459E-3,2.9069398E-2],"categories":[],"categories_nodes":[],"categories_segments":[],"categories_sizes":[],"default_left":[0,0,0,0,0,0,0,0,0,0,0,0,0],"id":18,"left_children":[1,3,5,7,-1,9,11,-1,-1,-1,-1,-1,-1],"loss_changes":[1.0808293E1,1.4542789E1,6.700593E0,2.438813E0,0E0,1.1578349E1,3.4600496E0,0E0,0E0,0E0,0E0,0E0,0E0],"parents":[2147483647,0,0,1,1,2,2,3,3,5,5,6,6],"right_children":[2,4,6,8,-1,10,12,-1,-1,-1,-1,-1,-1],"split_conditions":[1E0,1.2723871E-2,3.409091E-1,2.8348786E-1,-4.102566E-2,8.406848E-2,6.253874E-1,-9.796435E-3,3.46836E-3,1.8627608E-2,-8.440997E-3,8.000459E-3,2.9069398E-2],"split_indices":[3,3,2,2,0,2,10,0,0,0,0,0,0],"split_type":[0,0,0,0,0,0,0,0,0,0,0,0,0],"sum_hessian":[1.6473834E2,5.4896187E1,1.0984215E2,4.50594E1,9.836789E0,6.800841E1,4.183374E1,2.2855707E1,2.2203691E1,1.7454638E1,5.0553772E1,3.2797386E1,9.036354E0],"tree_param":{"num_deleted":"0","num_feature":"13","num_nodes":"13","size_leaf_vector":"1"}},{"base_weights":[-4.262799E-2,1.0438849E-1,-4.8426142E-1,2.7079982E-1,-1.8952438E-1,-4.161554E-2,-1.420002E-1,-1.3595267E-4,2.0781389E-2,-4.2863887E-2,3.4051992E-3,-1.7841678E-2,3.5236648E-3],"categories":[],"categories_nodes":[],"categories_segments":[],"categories_sizes":[],"default_left":[0,0,0,0,0,0,0,0,0,0,0,0,0],"id":19,"left_children":[1,3,5,7,9,-1,11,-1,-1,-1,-1,-1,-1],"loss_changes":[1.1014935E1,6.286328E0,1.2252701E1,9.724455E0,1.8012362E1,0E0,4.184958E0,0E0,0E0,0E0,0E0,0E0,0E0],"parents":[2147483647,0,0,1,1,2,2,3,3,4,4,6,6],"right_children":[2,4,6,8,10,-1,12,-1,-1,-1,-1,-1,-1],"split_conditions":[1.2723871E-2,9.94615E-3,9.9005383E-1,9.087939E-1,1E0,-4.161554E-2,9.506071E-1,-1.3595267E-4,2.0781389E-2,-4.2863887E-2,3.4051992E-3,-1.7841678E-2,3.5236648E-3],"split_indices":[9,11,9,8,11,0,3,0,0,0,0,0,0],"split_type":[0,0,0,0,0,0,0,0,0,0,0,0,0],"sum_hessian":[1.6433765E2,1.23930176E2,4.0407467E1,7.988044E1,4.4049732E1,9.187444E0,3.1220024E1,4.910381E1,3.0776634E1,7.3895373E0,3.66602E1,1.0853576E1,2.0366447E1],"tree_param":{"num_deleted":"0","num_feature":"13","num_nodes":"13","size_leaf_vector":"1"}},{"base_weights":[-3.0887822E-2,4.552374E-1,-1.2670824E-1,3.1409502E-2,-3.0818898E-2,-4.3591995E-2,-1.128831E-2,-4.5330464E-3,4.0239887E-3,-1.852673E-3,1.8422844E-2],"categories":[],"categories_nodes":[],"categories_segments":[],"categories_sizes":[],"default_left":[0,0,0,0,0,0,0,0,0,0,0],"id":20,"left_children":[1,3,5,-1,7,-1,9,-1,-1,-1,-1],"loss_changes":[7.938007E0,8.399818E0,2.159296E1,0E0,3.8279045E-1,0E0,4.1652174E0,0E0,0E0,0E0,0E0],"parents":[2147483647,0,0,1,1,2,2,4,4,6,6],"right_children":[2,4,6,-1,8,-1,10,-1,-1,-1,-1],"split_conditions":[1.8221825E-2,1.3360421E-2,1E0,3.1409502E-2,4.0916675E-1,-4.3591995E-2,9.1516227E-1,-4.5330464E-3,4.0239887E-3,-1.852673E-3,1.8422844E-2],"split_indices":[1,5,1,0,8,0,7,0,0,0,0],"split_type":[0,0,0,0,0,0,0,0,0,0,0],"sum_hessian":[1.6805322E2,2.5920113E1,1.4213312E2,1.0926659E1,1.4993454E1,9.314679E0,1.3281844E2,9.819635E0,5.1738186E0,1.25012344E2,7.806096E0],"tree_param":{"num_deleted":"0","num_feature":"13","num_nodes":"11","size_leaf_vector":"1"}},{"base_weights":[3.9785445E-2,-4.6210315E-2,8.5067683E-1,-3.6715135E-1,1.02929E-1,5.1766583E-3,3.2910917E-2,-1.8103804E-3,-4.0276356E-2,2.4970151E-2,-6.7442225E-4],"categories":[],"categories_nodes":[],"categories_segments":[],"categories_sizes":[],"default_left":[0,0,0,0,0,0,0,0,0,0,0],"id":21,"left_children":[1,3,5,7,9,-1,-1,-1,-1,-1,-1],"loss_changes":[1.1990986E1,7.47252E0,1.9944887E0,1.4254182E1,9.91287E0,0E0,0E0,0E0,0E0,0E0,0E0],"parents":[2147483647,0,0,1,1,2,2,3,3,4,4],"right_children":[2,4,6,8,10,-1,-1,-1,-1,-1,-1],"split_conditions":[1E0,1E0,1.624316E-1,1.2723871E-2,6.950409E-2,5.1766583E-3,3.2910917E-2,-1.8103804E-3,-4.0276356E-2,2.4970151E-2,-6.7442225E-4],"split_indices":[12,3,2,3,2,0,0,0,0,0,0],"split_type":[0,0,0,0,0,0,0,0,0,0,0],"sum_hessian":[1.653668E2,1.5088173E2,1.4485079E1,4.757989E1,1.03301834E2,5.0907497E0,9.394329E0,3.804449E1,9.535402E0,1.3852285E1,8.944955E1],"tree_param":{"num_deleted":"0","num_feature":"13","num_nodes":"11","size_leaf_vector":"1"}},{"base_weights":[-2.5541922E-3,2.5582783E-2,-7.8360416E-2,1.3556051E-1,-4.6013674E-1,-5.629687E-3,1.6440118E-2,-4.5128174E-2,-3.821507E-3],"categories":[],"categories_nodes":[],"categories_segments":[],"categories_sizes":[],"default_left":[0,0,0,0,0,0,0,0,0],"id":22,"left_children":[1,-1,3,5,7,-1,-1,-1,-1],"loss_changes":[1.0292575E1,0E0,1.242122E1,1.3214235E1,1.8097202E1,0E0,0E0,0E0,0E0],"parents":[2147483647,0,0,2,2,3,3,4,4],"right_children":[2,-1,4,6,8,-1,-1,-1,-1],"split_conditions":[1.9837594E-2,2.5582783E-2,9.94615E-3,1E0,1E0,-5.629687E-3,1.6440118E-2,-4.5128174E-2,-3.821507E-3],"split_indices":[2,0,11,8,11,0,0,0,0],"split_type":[0,0,0,0,0,0,0,0,0],"sum_hessian":[1.5826456E2,1.0893906E1,1.4737065E2,9.477139E1,5.2599262E1,5.3336323E1,4.143507E1,1.0792108E1,4.1807156E1],"tree_param":{"num_deleted":"0","num_feature":"13","num_nodes":"9","size_leaf_vector":"1"}},{"base_weights":[-2.3277238E-2,5.3184325E-1,-1.3296269E-1,3.4627166E-2,1.5599086E-2,-4.260267E-2,-2.127007E-2,-3.0981617E-3,7.8473445E-3,-3.2962793E-3,2.0526264E-2],"categories":[],"categories_nodes":[],"categories_segments":[],"categories_sizes":[],"default_left":[0,0,0,0,0,0,0,0,0,0,0],"id":23,"left_children":[1,3,5,-1,7,-1,9,-1,-1,-1,-1],"loss_changes":[1.0372543E1,8.60839E0,2.0208864E1,0E0,6.1596084E-1,0E0,8.400978E0,0E0,0E0,0E0,0E0],"parents":[2147483647,0,0,1,1,2,2,4,4,6,6],"right_children":[2,4,6,-1,8,-1,10,-1,-1,-1,-1],"split_conditions":[1.8221825E-2,1.3360421E-2,1E0,3.4627166E-2,9.891623E-1,-4.260267E-2,9.087939E-1,-3.0981617E-3,7.8473445E-3,-3.2962793E-3,2.0526264E-2],"split_indices":[1,5,1,0,8,0,12,0,0,0,0],"split_type":[0,0,0,0,0,0,0,0,0,0,0],"sum_hessian":[1.6799522E2,2.5996029E1,1.4199919E2,1.0402157E1,1.5593873E1,9.2531395E0,1.3274605E2,1.0473285E1,5.120588E0,1.1981181E2,1.2934235E1],"tree_param":{"num_deleted":"0","num_feature":"13","num_nodes":"11","size_leaf_vector":"1"}},{"base_weights":[-1.8883424E-2,1.1432765E-1,-4.428917E-1,-8.336878E-2,3.77685E-1,-3.79579E-2,-1.9136657E-1,-8.627998E-3,1.2503111E-2,1.896188E-2,-4.5816572E-3,-1.8603545E-2,1.3455069E-3],"categories":[],"categories_nodes":[],"categories_segments":[],"categories_sizes":[],"default_left":[0,0,0,0,0,0,0,0,0,0,0,0,0],"id":24,"left_children":[1,3,5,7,9,-1,11,-1,-1,-1,-1,-1,-1],"loss_changes":[9.18318E0,6.5070925E0,7.139782E0,7.4243884E0,7.536021E0,0E0,3.5176272E0,0E0,0E0,0E0,0E0,0E0,0E0],"parents":[2147483647,0,0,1,1,2,2,3,3,4,4,6,6],"right_children":[2,4,6,8,10,-1,12,-1,-1,-1,-1,-1,-1],"split_conditions":[1.2723871E-2,9.414648E-1,9.886463E-1,9.6322256E-1,1.3998936E-2,-3.79579E-2,9.506071E-1,-8.627998E-3,1.2503111E-2,1.896188E-2,-4.5816572E-3,-1.8603545E-2,1.3455069E-3],"split_indices":[9,8,9,6,10,0,3,0,0,0,0,0,0],"split_type":[0,0,0,0,0,0,0,0,0,0,0,0,0],"sum_hessian":[1.5704617E2,1.20075226E2,3.6970947E1,6.871795E1,5.1357273E1,6.4919147E0,3.0479033E1,4.982268E1,1.889527E1,3.4833687E1,1.6523582E1,1.0123574E1,2.035546E1],"tree_param":{"num_deleted":"0","num_feature":"13","num_nodes":"13","size_leaf_vector":"1"}},{"base_weights":[3.6071952E-2,-2.376705E-2,5.301901E-1,7.138637E-2,-3.383187E-1,6.1874576E-3,2.8562574E-2,6.454752E-3,-5.8185346E-3,-3.699366E-2,-1.2991119E-3],"categories":[],"categories_nodes":[],"categories_segments":[],"categories_sizes":[],"default_left":[0,0,0,0,0,0,0,0,0,0,0],"id":25,"left_children":[1,3,5,7,9,-1,-1,-1,-1,-1,-1],"loss_changes":[5.1276236E0,4.639434E0,1.8173084E0,4.5391235E0,9.035862E0,0E0,0E0,0E0,0E0,0E0,0E0],"parents":[2147483647,0,0,1,1,2,2,3,3,4,4],"right_children":[2,4,6,8,10,-1,-1,-1,-1,-1,-1],"split_conditions":[1E0,1.2723871E-2,2.9803312E-1,9.94615E-3,1E0,6.1874576E-3,2.8562574E-2,6.454752E-3,-5.8185346E-3,-3.699366E-2,-1.2991119E-3],"split_indices":[12,9,5,11,9,0,0,0,0,0,0],"split_type":[0,0,0,0,0,0,0,0,0,0,0],"sum_hessian":[1.6543004E2,1.487167E2,1.6713326E1,1.1463226E2,3.408445E1,1.1540814E1,5.1725116E0,7.532603E1,3.9306232E1,6.622196E0,2.7462254E1],"tree_param":{"num_deleted":"0","num_feature":"13","num_nodes":"11","size_leaf_vector":"1"}},{"base_weights":[-1.4520364E-2,6.494479E-1,-9.178127E-2,9.737856E-3,2.7140345E-2,-1.7670028E-1,5.4378325E-1,-3.0829587E-3,-3.8966883E-2,2.9922298E-3,3.0669132E-2],"categories":[],"categories_nodes":[],"categories_segments":[],"categories_sizes":[],"default_left":[0,0,0,0,0,0,0,0,0,0,0],"id":26,"left_children":[1,3,5,-1,-1,7,9,-1,-1,-1,-1],"loss_changes":[8.355688E0,4.4665718E-1,8.118494E0,0E0,0E0,1.0370502E1,3.2043195E0,0E0,0E0,0E0,0E0],"parents":[2147483647,0,0,1,1,2,2,5,5,6,6],"right_children":[2,4,6,-1,-1,8,10,-1,-1,-1,-1],"split_conditions":[4.1657038E-2,1.3360421E-2,1E0,9.737856E-3,2.7140345E-2,1.3789255E-2,7.379656E-2,-3.0829587E-3,-3.8966883E-2,2.9922298E-3,3.0669132E-2],"split_indices":[2,5,12,0,0,12,5,0,0,0,0],"split_type":[0,0,0,0,0,0,0,0,0,0,0],"sum_hessian":[1.6182011E2,1.4918456E1,1.4690167E2,9.08024E0,5.838216E0,1.3127742E2,1.562425E1,1.2546194E2,5.8154764E0,9.682867E0,5.941383E0],"tree_param":{"num_deleted":"0","num_feature":"13","num_nodes":"11","size_leaf_vector":"1"}},{"base_weights":[6.799019E-3,-6.797441E-2,5.974917E-1,-1.7404947E-1,3.2115594E-1,-3.1474745E-4,2.5980026E-2,-3.2436892E-3,-2.3571933E-2,5.5662305E-3,1.9597866E-2],"categories":[],"categories_nodes":[],"categories_segments":[],"categories_sizes":[],"default_left":[0,0,0,0,0,0,0,0,0,0,0],"id":27,"left_children":[1,3,5,7,9,-1,-1,-1,-1,-1,-1],"loss_changes":[7.600258E0,6.2287035E0,3.4384594E0,4.368447E0,9.5030546E-1,0E0,0E0,0E0,0E0,0E0,0E0],"parents":[2147483647,0,0,1,1,2,2,3,3,4,4],"right_children":[2,4,6,8,10,-1,-1,-1,-1,-1,-1],"split_conditions":[9.087939E-1,4.431818E-1,1.3063872E-1,4.0086934E-1,9.5478135E-1,-3.1474745E-4,2.5980026E-2,-3.2436892E-3,-2.3571933E-2,5.5662305E-3,1.9597866E-2],"split_indices":[12,2,2,2,10,0,0,0,0,0,0],"split_type":[0,0,0,0,0,0,0,0,0,0,0],"sum_hessian":[1.6463998E2,1.472608E2,1.7379187E1,1.1719139E2,3.0069412E1,5.5705066E0,1.180868E1,1.0835677E2,8.834616E0,2.4205734E1,5.863678E0],"tree_param":{"num_deleted":"0","num_feature":"13","num_nodes":"11","size_leaf_vector":"1"}},{"base_weights":[-0E0,7.2221816E-1,-6.6188E-2,9.687613E-3,2.9228E-2,4.4886466E-2,-4.0048942E-1,1.4759187E-2,-1.570216E-3,-3.8377214E-2,-2.3724088E-3],"categories":[],"categories_nodes":[],"categories_segments":[],"categories_sizes":[],"default_left":[0,0,0,0,0,0,0,0,0,0,0],"id":28,"left_children":[1,3,5,-1,-1,7,9,-1,-1,-1,-1],"loss_changes":[8.025345E0,4.01865E-1,5.776328E0,0E0,0E0,5.182576E0,1.0324272E1,0E0,0E0,0E0,0E0],"parents":[2147483647,0,0,1,1,2,2,5,5,6,6],"right_children":[2,4,6,-1,-1,8,10,-1,-1,-1,-1],"split_conditions":[1.9837594E-2,1.3360421E-2,1.2723871E-2,9.687613E-3,2.9228E-2,1.8221825E-2,9.886463E-1,1.4759187E-2,-1.570216E-3,-3.8377214E-2,-2.3724088E-3],"split_indices":[2,5,9,0,0,1,9,0,0,0,0],"split_type":[0,0,0,0,0,0,0,0,0,0,0],"sum_hessian":[1.6183105E2,1.2111768E1,1.4971928E2,6.9129004E0,5.1988673E0,1.1300613E2,3.671317E1,1.9286232E1,9.3719894E1,7.985838E0,2.872733E1],"tree_param":{"num_deleted":"0","num_feature":"13","num_nodes":"11","size_leaf_vector":"1"}},{"base_weights":[1.4566697E-2,-6.342909E-2,6.3565665E-1,-3.3167982E-3,-3.6971573E-2,2.8774029E-2,-1.0593624E-6,1.3777469E-2,-2.901831E-3],"categories":[],"categories_nodes":[],"categories_segments":[],"categories_sizes":[],"default_left":[0,0,0,0,0,0,0,0,0],"id":29,"left_children":[1,3,5,7,-1,-1,-1,-1,-1],"loss_changes":[8.352714E0,1.0157939E1,4.2496586E0,6.239563E0,0E0,0E0,0E0,0E0,0E0],"parents":[2147483647,0,0,1,1,2,2,3,3],"right_children":[2,4,6,8,-1,-1,-1,-1,-1],"split_conditions":[1E0,1.3789255E-2,3.0085603E-2,1.8221825E-2,-3.6971573E-2,2.8774029E-2,-1.0593624E-6,1.3777469E-2,-2.901831E-3],"split_indices":[12,12,4,1,0,0,0,0,0],"split_type":[0,0,0,0,0,0,0,0,0],"sum_hessian":[1.6521729E2,1.4795055E2,1.7266737E1,1.4286613E2,5.084417E0,1.108192E1,6.1848173E0,2.2147652E1,1.2071848E2],"tree_param":{"num_deleted":"0","num_feature":"13","num_nodes":"9","size_leaf_vector":"1"}},{"base_weights":[4.826109E-2,-6.7385934E-2,3.710287E-1,1.3127045E-2,-3.944003E-2,9.393765E-2,8.0132234E-1,9.181958E-3,-8.9804E-3,9.505066E-3,-7.896215E-3,4.120468E-2,5.7863425E-3],"categories":[],"categories_nodes":[],"categories_segments":[],"categories_sizes":[],"default_left":[0,0,0,0,0,0,0,0,0,0,0,0,0],"id":30,"left_children":[1,3,5,7,-1,9,11,-1,-1,-1,-1,-1,-1],"loss_changes":[6.2180705E0,1.2562682E1,4.819465E0,1.0738555E1,0E0,2.524577E0,4.751683E0,0E0,0E0,0E0,0E0,0E0,0E0],"parents":[2147483647,0,0,1,1,2,2,3,3,5,5,6,6],"right_children":[2,4,6,8,-1,10,12,-1,-1,-1,-1,-1,-1],"split_conditions":[9.966368E-1,3.0085603E-2,9.8621076E-1,1.3360421E-2,-3.944003E-2,9.94615E-3,2.5117186E-1,9.181958E-3,-8.9804E-3,9.505066E-3,-7.896215E-3,4.120468E-2,5.7863425E-3],"split_indices":[4,4,5,5,0,11,2,0,0,0,0,0,0],"split_type":[0,0,0,0,0,0,0,0,0,0,0,0,0],"sum_hessian":[1.608032E2,1.1886653E2,4.193667E1,1.13291885E2,5.574649E0,2.7415836E1,1.452083E1,5.8990498E1,5.4301388E1,1.7536713E1,9.879124E0,5.933388E0,8.587442E0],"tree_param":{"num_deleted":"0","num_feature":"13","num_nodes":"13","size_leaf_vector":"1"}},{"base_weights":[-6.293795E-3,-7.237087E-2,5.153276E-1,-1.1626715E-2,-3.7166987E-2,2.444476E-2,-4.645088E-4,8.351171E-3,-3.1850054E-3],"categories":[],"categories_nodes":[],"categories_segments":[],"categories_sizes":[],"default_left":[0,0,0,0,0,0,0,0,0],"id":31,"left_children":[1,3,5,7,-1,-1,-1,-1,-1],"loss_changes":[5.634666E0,1.0144498E1,3.1753488E0,3.9488277E0,0E0,0E0,0E0,0E0,0E0],"parents":[2147483647,0,0,1,1,2,2,3,3],"right_children":[2,4,6,8,-1,-1,-1,-1,-1],"split_conditions":[9.6217257E-1,1.3789255E-2,3.0085603E-2,1.5231743E-1,-3.7166987E-2,2.444476E-2,-4.645088E-4,8.351171E-3,-3.1850054E-3],"split_indices":[12,12,4,2,0,0,0,0,0],"split_type":[0,0,0,0,0,0,0,0,0],"sum_hessian":[1.631704E2,1.4686386E2,1.630653E1,1.417592E2,5.10466E0,1.0101853E1,6.2046766E0,3.3115658E1,1.0864355E2],"tree_param":{"num_deleted":"0","num_feature":"13","num_nodes":"9","size_leaf_vector":"1"}},{"base_weights":[-4.36267E-2,1.2820187E-1,-3.537949E-1,-3.721686E-2,5.4375666E-1,-4.384176E-2,-1.4345935E-2,3.5802412E-3,-4.3040093E-2,2.216998E-2,-1.2973885E-3,1.0969465E-2,-1.12382965E-2],"categories":[],"categories_nodes":[],"categories_segments":[],"categories_sizes":[],"default_left":[0,0,0,0,0,0,0,0,0,0,0,0,0],"id":32,"left_children":[1,3,5,7,9,-1,11,-1,-1,-1,-1,-1,-1],"loss_changes":[8.919764E0,7.522425E0,2.1983038E1,1.7720482E1,3.8261442E0,0E0,6.843344E0,0E0,0E0,0E0,0E0,0E0,0E0],"parents":[2147483647,0,0,1,1,2,2,3,3,4,4,6,6],"right_children":[2,4,6,8,10,-1,12,-1,-1,-1,-1,-1,-1],"split_conditions":[9.94615E-3,1E0,1E0,1.2154475E-2,1.3998936E-2,-4.384176E-2,2.5350744E-2,3.5802412E-3,-4.3040093E-2,2.216998E-2,-1.2973885E-3,1.0969465E-2,-1.12382965E-2],"split_indices":[11,6,11,6,10,0,8,0,0,0,0,0,0],"split_type":[0,0,0,0,0,0,0,0,0,0,0,0,0],"sum_hessian":[1.6239153E2,1.0463269E2,5.775883E1,7.5627014E1,2.900568E1,1.1791117E1,4.5967716E1,6.945987E1,6.167143E0,2.1760973E1,7.244706E0,2.1951435E1,2.4016281E1],"tree_param":{"num_deleted":"0","num_feature":"13","num_nodes":"13","size_leaf_vector":"1"}},{"base_weights":[-2.846862E-2,1.2824439E-1,-3.2669547E-1,2.4893034E-2,2.5419932E-2,-4.2961985E-2,-9.940335E-3,-5.1060626E-3,1.4473825E-2,3.5817309E-3,-1.917942E-2],"categories":[],"categories_nodes":[],"categories_segments":[],"categories_sizes":[],"default_left":[0,0,0,0,0,0,0,0,0,0,0],"id":33,"left_children":[1,3,5,7,-1,-1,9,-1,-1,-1,-1],"loss_changes":[7.8014264E0,7.7367506E0,1.9730164E1,8.91886E0,0E0,0E0,4.1382327E0,0E0,0E0,0E0,0E0],"parents":[2147483647,0,0,1,1,2,2,3,3,6,6],"right_children":[2,4,6,8,-1,-1,10,-1,-1,-1,-1],"split_conditions":[9.94615E-3,9.2658764E-1,1E0,1E0,2.5419932E-2,-4.2961985E-2,3.8809437E-2,-5.1060626E-3,1.4473825E-2,3.5817309E-3,-1.917942E-2],"split_indices":[11,12,11,6,0,0,7,0,0,0,0],"split_type":[0,0,0,0,0,0,0,0,0,0,0],"sum_hessian":[1.6185854E2,1.0619102E2,5.566752E1,9.5020546E1,1.1170478E1,1.0619559E1,4.5047962E1,6.703778E1,2.7982765E1,3.831788E1,6.730084E0],"tree_param":{"num_deleted":"0","num_feature":"13","num_nodes":"11","size_leaf_vector":"1"}},{"base_weights":[-8.534323E-2,1.9530531E-2,-1.5092704E-1,7.0511095E-2,-4.2478395E-1,9.19462E-3,-1.0866364E-2,-4.2853728E-2,-7.535369E-3],"categories":[],"categories_nodes":[],"categories_segments":[],"categories_sizes":[],"default_left":[0,0,0,0,0,0,0,0,0],"id":34,"left_children":[1,-1,3,5,7,-1,-1,-1,-1],"loss_changes":[7.858603E0,0E0,9.294819E0,8.817613E0,1.066028E1,0E0,0E0,0E0,0E0],"parents":[2147483647,0,0,2,2,3,3,4,4],"right_children":[2,-1,4,6,8,-1,-1,-1,-1],"split_conditions":[1.9837594E-2,1.9530531E-2,1.3360421E-2,9.94615E-3,1E0,9.19462E-3,-1.0866364E-2,-4.2853728E-2,-7.535369E-3],"split_indices":[2,0,5,11,5,0,0,0,0],"split_type":[0,0,0,0,0,0,0,0,0],"sum_hessian":[1.5976381E2,1.1231511E1,1.4853229E2,8.234139E1,6.6190895E1,5.4110264E1,2.823113E1,7.374093E0,5.8816803E1],"tree_param":{"num_deleted":"0","num_feature":"13","num_nodes":"9","size_leaf_vector":"1"}},{"base_weights":[-5.4879963E-2,8.629211E-2,-3.2690778E-1,-9.6351035E-2,1.6919512E-2,-4.165193E-2,-9.210279E-3,1.567105E-3,-4.2382825E-2,1.1036989E-2,-1.0083925E-2],"categories":[],"categories_nodes":[],"categories_segments":[],"categories_sizes":[],"default_left":[0,0,0,0,0,0,0,0,0,0,0],"id":35,"left_children":[1,3,5,7,-1,-1,9,-1,-1,-1,-1],"loss_changes":[6.6029873E0,1.0007359E1,1.9365553E1,1.6627516E1,0E0,0E0,6.086823E0,0E0,0E0,0E0,0E0],"parents":[2147483647,0,0,1,1,2,2,3,3,6,6],"right_children":[2,4,6,8,-1,-1,10,-1,-1,-1,-1],"split_conditions":[9.94615E-3,1E0,1E0,1.2154475E-2,1.6919512E-2,-4.165193E-2,2.5350744E-2,1.567105E-3,-4.2382825E-2,1.1036989E-2,-1.0083925E-2],"split_indices":[11,6,11,6,0,0,8,0,0,0,0],"split_type":[0,0,0,0,0,0,0,0,0,0,0],"sum_hessian":[1.6659174E2,1.098477E2,5.6744038E1,8.016541E1,2.968229E1,1.1300885E1,4.5443153E1,7.3555664E1,6.6097455E0,2.0559256E1,2.4883898E1],"tree_param":{"num_deleted":"0","num_feature":"13","num_nodes":"11","size_leaf_vector":"1"}},{"base_weights":[-1.959897E-2,1.4534199E-1,-3.2649276E-1,-6.575517E-2,4.1458753E-1,-4.0991336E-2,-2.7690051E-2,-2.1274062E-2,7.428933E-3,2.1481121E-2,3.8681629E-3,1.33238165E-2,-7.4961125E-3],"categories":[],"categories_nodes":[],"categories_segments":[],"categories_sizes":[],"default_left":[0,0,0,0,0,0,0,0,0,0,0,0,0],"id":36,"left_children":[1,3,5,7,9,-1,11,-1,-1,-1,-1,-1,-1],"loss_changes":[8.3216505E0,6.17015E0,1.7431541E1,1.2664296E1,3.6413574E0,0E0,5.0988564E0,0E0,0E0,0E0,0E0,0E0,0E0],"parents":[2147483647,0,0,1,1,2,2,3,3,4,4,6,6],"right_children":[2,4,6,8,10,-1,12,-1,-1,-1,-1,-1,-1],"split_conditions":[9.94615E-3,9.8621076E-1,1E0,1.8181819E-1,2.5117186E-1,-4.0991336E-2,1.7048249E-1,-2.1274062E-2,7.428933E-3,2.1481121E-2,3.8681629E-3,1.33238165E-2,-7.4961125E-3],"split_indices":[11,8,11,2,2,0,2,0,0,0,0,0,0],"split_type":[0,0,0,0,0,0,0,0,0,0,0,0,0],"sum_hessian":[1.594481E2,1.0375823E2,5.568988E1,5.838211E1,4.5376118E1,1.06112385E1,4.507864E1,1.8609194E1,3.9772915E1,2.0100294E1,2.5275824E1,1.3359837E1,3.1718803E1],"tree_param":{"num_deleted":"0","num_feature":"13","num_nodes":"13","size_leaf_vector":"1"}},{"base_weights":[3.7008684E-2,-2.7106547E-1,1.9687629E-1,-4.106149E-3,-3.8934775E-2,8.6308055E-2,5.3358114E-1,5.3338655E-3,-1.3096811E-2,2.080946E-2,-4.8640033E-4,1.7133313E-3,3.1272553E-2],"categories":[],"categories_nodes":[],"categories_segments":[],"categories_sizes":[],"default_left":[0,0,0,0,0,0,0,0,0,0,0,0,0],"id":37,"left_children":[1,3,5,7,-1,9,11,-1,-1,-1,-1,-1,-1],"loss_changes":[8.25458E0,1.5188085E1,3.8548121E0,3.9596748E0,0E0,5.6195636E0,5.9483204E0,0E0,0E0,0E0,0E0,0E0,0E0],"parents":[2147483647,0,0,1,1,2,2,3,3,5,5,6,6],"right_children":[2,4,6,8,-1,10,12,-1,-1,-1,-1,-1,-1],"split_conditions":[1E0,1.2723871E-2,9.856065E-1,1.2723871E-2,-3.8934775E-2,8.406848E-2,3.068182E-1,5.3338655E-3,-1.3096811E-2,2.080946E-2,-4.8640033E-4,1.7133313E-3,3.1272553E-2],"split_indices":[3,3,10,9,0,2,2,0,0,0,0,0,0],"split_type":[0,0,0,0,0,0,0,0,0,0,0,0,0],"sum_hessian":[1.638868E2,5.4873905E1,1.09012886E2,4.53762E1,9.497705E0,8.462659E1,2.43863E1,3.2281693E1,1.3094509E1,1.097929E1,7.364729E1,1.4046942E1,1.0339358E1],"tree_param":{"num_deleted":"0","num_feature":"13","num_nodes":"13","size_leaf_vector":"1"}},{"base_weights":[-9.85647E-3,-3.6190075E-1,1.6358992E-1,-9.9009804E-2,-3.822377E-2,6.801278E-1,4.5372758E-2,2.2275946E-3,-1.2972406E-2,2.9906347E-2,6.4368513E-3,-2.230243E-3,2.534927E-2],"categories":[],"categories_nodes":[],"categories_segments":[],"categories_sizes":[],"default_left":[0,0,0,0,0,0,0,0,0,0,0,0,0],"id":38,"left_children":[1,3,5,7,-1,9,11,-1,-1,-1,-1,-1,-1],"loss_changes":[1.035087E1,1.2809496E1,6.5854177E0,2.8311424E0,0E0,2.2055779E0,9.364298E0,0E0,0E0,0E0,0E0,0E0,0E0],"parents":[2147483647,0,0,1,1,2,2,3,3,5,5,6,6],"right_children":[2,4,6,8,-1,10,12,-1,-1,-1,-1,-1,-1],"split_conditions":[1E0,1.2723871E-2,1.8221825E-2,1.3998936E-2,-3.822377E-2,1.3360421E-2,1E0,2.2275946E-3,-1.2972406E-2,2.9906347E-2,6.4368513E-3,-2.230243E-3,2.534927E-2],"split_indices":[3,3,1,10,0,5,12,0,0,0,0,0,0],"split_type":[0,0,0,0,0,0,0,0,0,0,0,0,0],"sum_hessian":[1.6460391E2,5.418373E1,1.1042018E2,4.40384E1,1.0145334E1,1.8321617E1,9.2098564E1,2.9409605E1,1.4628792E1,9.161635E0,9.159982E0,8.135692E1,1.074165E1],"tree_param":{"num_deleted":"0","num_feature":"13","num_nodes":"13","size_leaf_vector":"1"}},{"base_weights":[1.6470702E-2,4.5659405E-1,-6.648517E-2,3.492961E-2,-2.0062034E-1,-4.0624235E-2,4.9069878E-2,1.6558291E-3,-1.603189E-2,-7.2994083E-4,1.9610368E-2],"categories":[],"categories_nodes":[],"categories_segments":[],"categories_sizes":[],"default_left":[0,0,0,0,0,0,0,0,0,0,0],"id":39,"left_children":[1,3,5,-1,7,-1,9,-1,-1,-1,-1],"loss_changes":[5.78989E0,1.2479881E1,1.9943182E1,0E0,1.4455427E0,0E0,5.61159E0,0E0,0E0,0E0,0E0],"parents":[2147483647,0,0,1,1,2,2,4,4,6,6],"right_children":[2,4,6,-1,8,-1,10,-1,-1,-1,-1],"split_conditions":[1.8221825E-2,1.3360421E-2,1E0,3.492961E-2,9.94615E-3,-4.0624235E-2,9.2658764E-1,1.6558291E-3,-1.603189E-2,-7.2994083E-4,1.9610368E-2],"split_indices":[1,5,1,0,11,0,12,0,0,0,0],"split_type":[0,0,0,0,0,0,0,0,0,0,0],"sum_hessian":[1.517118E2,2.3205105E1,1.285067E2,1.0649926E1,1.255518E1,9.031018E0,1.19475685E2,7.543846E0,5.011333E0,1.0781051E2,1.1665173E1],"tree_param":{"num_deleted":"0","num_feature":"13","num_nodes":"11","size_leaf_vector":"1"}},{"base_weights":[-3.0949367E-2,9.648262E-2,-4.200352E-1,3.842494E-2,2.0581353E-2,-3.709107E-2,-1.4862932E-1,1.4253186E-2,-1.3390994E-3,-1.0289152E-2,8.739442E-3],"categories":[],"categories_nodes":[],"categories_segments":[],"categories_sizes":[],"default_left":[0,0,0,0,0,0,0,0,0,0,0],"id":40,"left_children":[1,3,5,7,-1,-1,9,-1,-1,-1,-1],"loss_changes":[8.310661E0,3.9948664E0,8.3941E0,4.3795104E0,0E0,0E0,3.0910993E0,0E0,0E0,0E0,0E0],"parents":[2147483647,0,0,1,1,2,2,3,3,6,6],"right_children":[2,4,6,8,-1,-1,10,-1,-1,-1,-1],"split_conditions":[1.2723871E-2,5.7954544E-1,1E0,1.8221825E-2,2.0581353E-2,-3.709107E-2,1E0,1.4253186E-2,-1.3390994E-3,-1.0289152E-2,8.739442E-3],"split_indices":[9,2,9,1,0,0,6,0,0,0,0],"split_type":[0,0,0,0,0,0,0,0,0,0,0],"sum_hessian":[1.6202214E2,1.2260124E2,3.94209E1,1.14012924E2,8.588321E0,7.7859974E0,3.1634901E1,1.728933E1,9.6723595E1,2.2720856E1,8.914046E0],"tree_param":{"num_deleted":"0","num_feature":"13","num_nodes":"11","size_leaf_vector":"1"}},{"base_weights":[2.4787338E-2,1.4360322E-1,-3.1773505E-1,-2.5948092E-2,3.9051443E-1,-3.6067165E-2,-4.0524E-2,5.980423E-3,-9.226739E-3,1.5927907E-2,9.672114E-4,-1.3848998E-2,5.0089164E-3],"categories":[],"categories_nodes":[],"categories_segments":[],"categories_sizes":[],"default_left":[0,0,0,0,0,0,0,0,0,0,0,0,0],"id":41,"left_children":[1,3,5,7,9,-1,11,-1,-1,-1,-1,-1,-1],"loss_changes":[6.540091E0,5.179684E0,9.610512E0,4.765891E0,2.3099656E0,0E0,3.1810522E0,0E0,0E0,0E0,0E0,0E0,0E0],"parents":[2147483647,0,0,1,1,2,2,3,3,4,4,6,6],"right_children":[2,4,6,8,10,-1,12,-1,-1,-1,-1,-1,-1],"split_conditions":[1.2723871E-2,9.966368E-1,1E0,1.3360421E-2,1.3998936E-2,-3.6067165E-2,9.0635437E-1,5.980423E-3,-9.226739E-3,1.5927907E-2,9.672114E-4,-1.3848998E-2,5.0089164E-3],"split_indices":[9,8,9,5,10,0,3,0,0,0,0,0,0],"split_type":[0,0,0,0,0,0,0,0,0,0,0,0,0],"sum_hessian":[1.5774297E2,1.1862951E2,3.911345E1,7.0673546E1,4.7955967E1,7.4825797E0,3.1630869E1,3.899523E1,3.1678312E1,3.315902E1,1.4796949E1,1.01093855E1,2.1521482E1],"tree_param":{"num_deleted":"0","num_feature":"13","num_nodes":"13","size_leaf_vector":"1"}},{"base_weights":[-4.266112E-2,-3.5016084E-1,1.0737578E-1,-1.4759442E-1,-3.5802353E-2,-1.568169E-3,4.5989347E-1,2.117801E-3,-1.5560905E-2,2.02052E-2,-4.046324E-3,2.554545E-3,2.4868714E-2],"categories":[],"categories_nodes":[],"categories_segments":[],"categories_sizes":[],"default_left":[0,0,0,0,0,0,0,0,0,0,0,0,0],"id":42,"left_children":[1,3,5,7,-1,9,11,-1,-1,-1,-1,-1,-1],"loss_changes":[7.64729E0,8.542423E0,4.3679895E0,3.9690852E0,0E0,7.7113214E0,3.2709508E0,0E0,0E0,0E0,0E0,0E0,0E0],"parents":[2147483647,0,0,1,1,2,2,3,3,5,5,6,6],"right_children":[2,4,6,8,-1,10,12,-1,-1,-1,-1,-1,-1],"split_conditions":[9.758521E-1,1.2723871E-2,9.424412E-1,9.94615E-3,-3.5802353E-2,8.406848E-2,3.068182E-1,2.117801E-3,-1.5560905E-2,2.02052E-2,-4.046324E-3,2.554545E-3,2.4868714E-2],"split_indices":[3,3,10,11,0,2,2,0,0,0,0,0,0],"split_type":[0,0,0,0,0,0,0,0,0,0,0,0,0],"sum_hessian":[1.6054567E2,5.242756E1,1.0811812E2,4.4454494E1,7.973066E0,8.346403E1,2.4654087E1,2.8505798E1,1.5948695E1,1.2056318E1,7.1407715E1,1.3857596E1,1.0796491E1],"tree_param":{"num_deleted":"0","num_feature":"13","num_nodes":"13","size_leaf_vector":"1"}},{"base_weights":[2.510797E-2,-2.456984E-1,1.6245414E-1,-4.6204664E-3,-3.577368E-2,8.291591E-2,2.1834008E-2,5.52426E-3,-1.4657091E-2,1.7134177E-2,-5.6680583E-4],"categories":[],"categories_nodes":[],"categories_segments":[],"categories_sizes":[],"default_left":[0,0,0,0,0,0,0,0,0,0,0],"id":43,"left_children":[1,3,5,7,-1,9,-1,-1,-1,-1,-1],"loss_changes":[6.0137424E0,1.194874E1,4.5031548E0,4.4075694E0,0E0,5.039027E0,0E0,0E0,0E0,0E0,0E0],"parents":[2147483647,0,0,1,1,2,2,3,3,5,5],"right_children":[2,4,6,8,-1,10,-1,-1,-1,-1,-1],"split_conditions":[9.506071E-1,1.2723871E-2,9.6217257E-1,1.2723871E-2,-3.577368E-2,8.406848E-2,2.1834008E-2,5.52426E-3,-1.4657091E-2,1.7134177E-2,-5.6680583E-4],"split_indices":[3,3,12,9,0,2,0,0,0,0,0],"split_type":[0,0,0,0,0,0,0,0,0,0,0],"sum_hessian":[1.5821E2,5.1972813E1,1.062372E2,4.3279064E1,8.6937475E0,9.560988E1,1.0627322E1,3.158037E1,1.1698693E1,1.5414956E1,8.019492E1],"tree_param":{"num_deleted":"0","num_feature":"13","num_nodes":"11","size_leaf_vector":"1"}},{"base_weights":[7.856394E-3,-3.2997155E-1,1.8311049E-1,-1.041579E-1,-3.5671484E-2,1.4440295E-2,5.744514E-1,2.2629376E-3,-1.8103011E-2,4.920751E-3,-4.0547404E-2,2.9765358E-2,-6.6825943E-3],"categories":[],"categories_nodes":[],"categories_segments":[],"categories_sizes":[],"default_left":[0,0,0,0,0,0,0,0,0,0,0,0,0],"id":44,"left_children":[1,3,5,7,-1,9,11,-1,-1,-1,-1,-1,-1],"loss_changes":[9.219651E0,9.621902E0,6.641759E0,4.2250705E0,0E0,1.5401741E1,1.086333E1,0E0,0E0,0E0,0E0,0E0,0E0],"parents":[2147483647,0,0,1,1,2,2,3,3,5,5,6,6],"right_children":[2,4,6,8,-1,10,12,-1,-1,-1,-1,-1,-1],"split_conditions":[1E0,1.2723871E-2,9.6405774E-1,1.2723871E-2,-3.5671484E-2,1.2154475E-2,9.94615E-3,2.2629376E-3,-1.8103011E-2,4.920751E-3,-4.0547404E-2,2.9765358E-2,-6.6825943E-3],"split_indices":[3,3,6,9,0,6,11,0,0,0,0,0,0],"split_type":[0,0,0,0,0,0,0,0,0,0,0,0,0],"sum_hessian":[1.5242538E2,5.0876343E1,1.0154904E2,4.2338993E1,8.537352E0,7.2948296E1,2.8600746E1,3.1945269E1,1.03937235E1,6.753266E1,5.415633E0,1.869298E1,9.907765E0],"tree_param":{"num_deleted":"0","num_feature":"13","num_nodes":"13","size_leaf_vector":"1"}},{"base_weights":[-4.6154693E-2,1.4739919E-2,-1.0392772E-1,-3.5386917E-1,1.0087943E-1,-6.416885E-3,-2.5262255E-2,1.576415E-2,7.402681E-4],"categories":[],"categories_nodes":[],"categories_segments":[],"categories_sizes":[],"default_left":[0,0,0,0,0,0,0,0,0],"id":45,"left_children":[1,-1,3,5,7,-1,-1,-1,-1],"loss_changes":[4.9726543E0,0E0,7.6804414E0,3.9274988E0,2.4550648E0,0E0,0E0,0E0,0E0],"parents":[2147483647,0,0,2,2,3,3,4,4],"right_children":[2,-1,4,6,8,-1,-1,-1,-1],"split_conditions":[4.1657038E-2,1.4739919E-2,2.840909E-1,2.5117186E-1,1.4544666E-2,-6.416885E-3,-2.5262255E-2,1.576415E-2,7.402681E-4],"split_indices":[2,0,2,2,0,0,0,0,0],"split_type":[0,0,0,0,0,0,0,0,0],"sum_hessian":[1.5859271E2,1.3431588E1,1.4516112E2,6.538098E1,7.9780136E1,5.3525494E1,1.1855488E1,9.746514E0,7.003362E1],"tree_param":{"num_deleted":"0","num_feature":"13","num_nodes":"9","size_leaf_vector":"1"}},{"base_weights":[2.4782095E-2,1.2881552E-1,-2.987707E-1,6.722248E-2,2.2136264E-2,-3.504586E-2,-3.255655E-2,-2.2734138E-3,8.117359E-3,5.806839E-3,-7.5872433E-3],"categories":[],"categories_nodes":[],"categories_segments":[],"categories_sizes":[],"default_left":[0,0,0,0,0,0,0,0,0,0,0],"id":46,"left_children":[1,3,5,7,-1,-1,9,-1,-1,-1,-1],"loss_changes":[5.583416E0,4.4247317E0,8.838319E0,3.5313375E0,0E0,0E0,1.7599149E0,0E0,0E0,0E0,0E0],"parents":[2147483647,0,0,1,1,2,2,3,3,6,6],"right_children":[2,4,6,8,-1,-1,10,-1,-1,-1,-1],"split_conditions":[1.2723871E-2,5.7954544E-1,1E0,9.966368E-1,2.2136264E-2,-3.504586E-2,2.5350744E-2,-2.2734138E-3,8.117359E-3,5.806839E-3,-7.5872433E-3],"split_indices":[9,2,9,8,0,0,8,0,0,0,0],"split_type":[0,0,0,0,0,0,0,0,0,0,0],"sum_hessian":[1.6310338E2,1.25032166E2,3.8071217E1,1.16013275E2,9.018888E0,7.0719094E0,3.0999308E1,6.798483E1,4.8028446E1,1.4747541E1,1.6251764E1],"tree_param":{"num_deleted":"0","num_feature":"13","num_nodes":"11","size_leaf_vector":"1"}},{"base_weights":[2.802902E-2,-1.3895486E-1,1.9922605E-1,2.723412E-1,-2.8523415E-1,2.603536E-2,1.04313344E-1,1.3487093E-2,-2.06539E-3,-1.3673141E-2,-4.2033902E-5,-1.4252453E-2,6.699981E-3],"categories":[],"categories_nodes":[],"categories_segments":[],"categories_sizes":[],"default_left":[0,0,0,0,0,0,0,0,0,0,0,0,0],"id":47,"left_children":[1,3,5,7,9,-1,11,-1,-1,-1,-1,-1,-1],"loss_changes":[4.7698097E0,5.1802597E0,4.783515E0,1.5293711E0,2.9147086E0,0E0,5.3221955E0,0E0,0E0,0E0,0E0,0E0,0E0],"parents":[2147483647,0,0,1,1,2,2,3,3,4,4,6,6],"right_children":[2,4,6,8,10,-1,12,-1,-1,-1,-1,-1,-1],"split_conditions":[2.840909E-1,6.950409E-2,3.0284625E-1,1.2154475E-2,9.414648E-1,2.603536E-2,3.409091E-1,1.3487093E-2,-2.06539E-3,-1.3673141E-2,-4.2033902E-5,-1.4252453E-2,6.699981E-3],"split_indices":[2,2,2,6,8,0,2,0,0,0,0,0,0],"split_type":[0,0,0,0,0,0,0,0,0,0,0,0,0],"sum_hessian":[1.6228227E2,8.145559E1,8.0826675E1,2.0379562E1,6.107603E1,7.6298227E0,7.319685E1,1.35730505E1,6.806513E0,3.67355E1,2.434053E1,1.10245695E1,6.2172287E1],"tree_param":{"num_deleted":"0","num_feature":"13","num_nodes":"13","size_leaf_vector":"1"}},{"base_weights":[-2.063629E-2,-3.4709948E-1,1.3704783E-1,-1.12380326E-1,-3.5796907E-2,2.2619974E-2,4.790906E-1,-2.2805747E-2,5.067506E-4,1.749328E-2,-2.2919776E-3,1.8629315E-4,2.9235234E-2],"categories":[],"categories_nodes":[],"categories_segments":[],"categories_sizes":[],"default_left":[0,0,0,0,0,0,0,0,0,0,0,0,0],"id":48,"left_children":[1,3,5,7,-1,9,11,-1,-1,-1,-1,-1,-1],"loss_changes":[8.406896E0,9.9404545E0,4.0886483E0,3.9559336E0,0E0,4.9213634E0,5.9097843E0,0E0,0E0,0E0,0E0,0E0,0E0],"parents":[2147483647,0,0,1,1,2,2,3,3,5,5,6,6],"right_children":[2,4,6,8,-1,10,12,-1,-1,-1,-1,-1,-1],"split_conditions":[1E0,1.2723871E-2,9.424412E-1,9.927585E-2,-3.5796907E-2,8.406848E-2,2.936996E-1,-2.2805747E-2,5.067506E-4,1.749328E-2,-2.2919776E-3,1.8629315E-4,2.9235234E-2],"split_indices":[3,3,10,2,0,2,2,0,0,0,0,0,0],"split_type":[0,0,0,0,0,0,0,0,0,0,0,0,0],"sum_hessian":[1.58238E2,5.1374424E1,1.0686359E2,4.2269054E1,9.1053705E0,8.233003E1,2.453355E1,5.7939305E0,3.6475124E1,1.1347959E1,7.098208E1,1.3898198E1,1.0635352E1],"tree_param":{"num_deleted":"0","num_feature":"13","num_nodes":"13","size_leaf_vector":"1"}},{"base_weights":[-1.1599326E-2,-3.489638E-1,1.4485495E-1,-1.6534717E-1,-3.3632234E-2,2.004174E-2,2.4011113E-2,-1.1742717E-2,6.69103E-3,-3.413242E-3,1.1427877E-2],"categories":[],"categories_nodes":[],"categories_segments":[],"categories_sizes":[],"default_left":[0,0,0,0,0,0,0,0,0,0,0],"id":49,"left_children":[1,3,5,7,-1,-1,9,-1,-1,-1,-1],"loss_changes":[8.965117E0,6.903729E0,7.0150185E0,4.2914968E0,0E0,0E0,4.8758345E0,0E0,0E0,0E0,0E0],"parents":[2147483647,0,0,1,1,2,2,3,3,6,6],"right_children":[2,4,6,8,-1,-1,10,-1,-1,-1,-1],"split_conditions":[1E0,1.2723871E-2,8.406848E-2,1E0,-3.3632234E-2,2.004174E-2,9.6405774E-1,-1.1742717E-2,6.69103E-3,-3.413242E-3,1.1427877E-2],"split_indices":[3,3,2,8,0,0,6,0,0,0,0],"split_type":[0,0,0,0,0,0,0,0,0,0,0],"sum_hessian":[1.6477594E2,5.2033024E1,1.1274292E2,4.431198E1,7.7210436E0,1.8989082E1,9.375384E1,2.8486671E1,1.5825309E1,6.8017914E1,2.5735928E1],"tree_param":{"num_deleted":"0","num_feature":"13","num_nodes":"11","size_leaf_vector":"1"}},{"base_weights":[7.7815377E-3,-2.767174E-1,1.480104E-1,-8.620155E-2,-3.3559095E-2,6.214315E-2,7.1680677E-1,2.2535583E-3,-1.5710298E-2,1.997726E-2,-1.2846777E-3,5.599191E-3,2.8548656E-2],"categories":[],"categories_nodes":[],"categories_segments":[],"categories_sizes":[],"default_left":[0,0,0,0,0,0,0,0,0,0,0,0,0],"id":50,"left_children":[1,3,5,7,-1,9,11,-1,-1,-1,-1,-1,-1],"loss_changes":[6.5037794E0,8.019992E0,5.0732307E0,3.4631107E0,0E0,6.495125E0,1.0266166E0,0E0,0E0,0E0,0E0,0E0,0E0],"parents":[2147483647,0,0,1,1,2,2,3,3,5,5,6,6],"right_children":[2,4,6,8,-1,10,12,-1,-1,-1,-1,-1,-1],"split_conditions":[1E0,1.2723871E-2,1E0,1.2723871E-2,-3.3559095E-2,8.406848E-2,1.8437742E-1,2.2535583E-3,-1.5710298E-2,1.997726E-2,-1.2846777E-3,5.599191E-3,2.8548656E-2],"split_indices":[3,3,12,9,0,2,2,0,0,0,0,0,0],"split_type":[0,0,0,0,0,0,0,0,0,0,0,0,0],"sum_hessian":[1.5993718E2,5.145609E1,1.0848109E2,4.4049366E1,7.406723E0,9.6638214E1,1.1842867E1,3.28914E1,1.1157967E1,1.3152821E1,8.34854E1,5.1292615E0,6.713606E0],"tree_param":{"num_deleted":"0","num_feature":"13","num_nodes":"13","size_leaf_vector":"1"}},{"base_weights":[1.1030198E-2,-1.5370148E-1,1.7680618E-1,-4.0311413E-3,-6.025477E-1,3.086405E-1,-8.213456E-2,9.114428E-3,-1.0091343E-2,-2.7061094E-2,-4.392606E-3,2.567537E-2,5.677915E-3,-2.0765992E-2,5.8157356E-3],"categories":[],"categories_nodes":[],"categories_segments":[],"categories_sizes":[],"default_left":[0,0,0,0,0,0,0,0,0,0,0,0,0,0,0],"id":51,"left_children":[1,3,5,7,9,11,13,-1,-1,-1,-1,-1,-1,-1,-1],"loss_changes":[4.4841247E0,5.2813444E0,2.9370584E0,6.7167697E0,2.1315799E0,3.0138144E0,5.2443376E0,0E0,0E0,0E0,0E0,0E0,0E0,0E0,0E0],"parents":[2147483647,0,0,1,1,2,2,3,3,4,4,5,5,6,6],"right_children":[2,4,6,8,10,12,14,-1,-1,-1,-1,-1,-1,-1,-1],"split_conditions":[2.840909E-1,1.2723871E-2,9.94615E-3,1.3360421E-2,4.504711E-1,1.8221825E-2,9.4476575E-1,9.114428E-3,-1.0091343E-2,-2.7061094E-2,-4.392606E-3,2.567537E-2,5.677915E-3,-2.0765992E-2,5.8157356E-3],"split_indices":[2,9,11,5,5,1,1,0,0,0,0,0,0,0,0],"split_type":[0,0,0,0,0,0,0,0,0,0,0,0,0,0,0],"sum_hessian":[1.5995811E2,7.939714E1,8.0560974E1,6.155696E1,1.784018E1,5.3895763E1,2.6665215E1,3.1576967E1,2.9979994E1,9.191938E0,8.648242E0,6.9923263E0,4.6903435E1,7.704897E0,1.8960318E1],"tree_param":{"num_deleted":"0","num_feature":"13","num_nodes":"15","size_leaf_vector":"1"}},{"base_weights":[-3.819991E-2,3.7290713E-1,-1.138807E-1,-2.8423846E-3,5.415155E-1,-3.9218776E-2,-5.505215E-3,4.5568533E-3,2.751905E-2,-2.2725214E-3,1.8373461E-2],"categories":[],"categories_nodes":[],"categories_segments":[],"categories_sizes":[],"default_left":[0,0,0,0,0,0,0,0,0,0,0],"id":52,"left_children":[1,3,5,-1,7,-1,9,-1,-1,-1,-1],"loss_changes":[5.153036E0,2.2524493E0,1.7935123E1,0E0,2.2643757E0,0E0,5.672905E0,0E0,0E0,0E0,0E0],"parents":[2147483647,0,0,1,1,2,2,4,4,6,6],"right_children":[2,4,6,-1,8,-1,10,-1,-1,-1,-1],"split_conditions":[1.8221825E-2,1E0,1E0,-2.8423846E-3,9.891623E-1,-3.9218776E-2,9.087939E-1,4.5568533E-3,2.751905E-2,-2.2725214E-3,1.8373461E-2],"split_indices":[1,3,1,0,8,0,12,0,0,0,0],"split_type":[0,0,0,0,0,0,0,0,0,0,0],"sum_hessian":[1.6339148E2,2.3564978E1,1.3982649E2,6.005356E0,1.7559622E1,9.56833E0,1.3025816E2,1.0391895E1,7.167726E0,1.1897417E2,1.1284E1],"tree_param":{"num_deleted":"0","num_feature":"13","num_nodes":"11","size_leaf_vector":"1"}},{"base_weights":[-1.567198E-2,-3.130963E-1,1.2907562E-1,-9.746224E-2,-3.3920165E-2,2.3466282E-2,5.764573E-1,-1.3901217E-2,8.9342304E-4,-2.6162013E-3,1.0166044E-2,2.1661833E-2,3.3801754E-3],"categories":[],"categories_nodes":[],"categories_segments":[],"categories_sizes":[],"default_left":[0,0,0,0,0,0,0,0,0,0,0,0,0],"id":53,"left_children":[1,3,5,7,-1,9,11,-1,-1,-1,-1,-1,-1],"loss_changes":[7.0459566E0,8.89669E0,4.928776E0,2.255382E0,0E0,3.2960021E0,9.4635105E-1,0E0,0E0,0E0,0E0,0E0,0E0],"parents":[2147483647,0,0,1,1,2,2,3,3,5,5,6,6],"right_children":[2,4,6,8,-1,10,12,-1,-1,-1,-1,-1,-1],"split_conditions":[1E0,1.2723871E-2,4.8863637E-1,9.54051E-1,-3.3920165E-2,9.6322256E-1,1.2154475E-2,-1.3901217E-2,8.9342304E-4,-2.6162013E-3,1.0166044E-2,2.1661833E-2,3.3801754E-3],"split_indices":[3,3,2,1,0,6,6,0,0,0,0,0,0],"split_type":[0,0,0,0,0,0,0,0,0,0,0,0,0],"sum_hessian":[1.5850383E2,5.1804173E1,1.0669966E2,4.3054092E1,8.750079E0,8.856775E1,1.813191E1,1.0353892E1,3.27002E1,6.592931E1,2.2638435E1,1.2459622E1,5.6722875E0],"tree_param":{"num_deleted":"0","num_feature":"13","num_nodes":"13","size_leaf_vector":"1"}},{"base_weights":[-4.032334E-2,4.9530596E-2,-3.375668E-1,1.41418865E-2,-3.4037236E-2,-3.0972848E-2,-1.5011498E-1,-2.7769778E-3,2.0011524E-2,1.3703455E-2,-9.210948E-3],"categories":[],"categories_nodes":[],"categories_segments":[],"categories_sizes":[],"default_left":[0,0,0,0,0,0,0,0,0,0,0],"id":54,"left_children":[1,3,5,-1,7,-1,9,-1,-1,-1,-1],"loss_changes":[4.3783464E0,4.5137677E0,4.290266E0,0E0,4.22977E0,0E0,3.3439019E0,0E0,0E0,0E0,0E0],"parents":[2147483647,0,0,1,1,2,2,4,4,6,6],"right_children":[2,4,6,-1,8,-1,10,-1,-1,-1,-1],"split_conditions":[1.2723871E-2,1.8221825E-2,1E0,1.41418865E-2,5.9090906E-1,-3.0972848E-2,1.3063872E-1,-2.7769778E-3,2.0011524E-2,1.3703455E-2,-9.210948E-3],"split_indices":[9,1,9,0,2,0,2,0,0,0,0],"split_type":[0,0,0,0,0,0,0,0,0,0,0],"sum_hessian":[1.574435E2,1.214022E2,3.6041298E1,1.9131424E1,1.02270775E2,5.4017696E0,3.063953E1,9.63879E1,5.8828764E0,5.1165905E0,2.552294E1],"tree_param":{"num_deleted":"0","num_feature":"13","num_nodes":"11","size_leaf_vector":"1"}},{"base_weights":[-4.3338533E-2,9.9230096E-2,-2.2569449E-1,1.8494931E-1,-3.1518385E-1,-3.960413E-2,-6.72594E-2,8.7199145E-4,1.4749698E-2,2.180545E-3,-2.1545047E-2,-6.74545E-3,1.5176566E-2],"categories":[],"categories_nodes":[],"categories_segments":[],"categories_sizes":[],"default_left":[0,0,0,0,0,0,0,0,0,0,0,0,0],"id":55,"left_children":[1,3,5,7,9,-1,11,-1,-1,-1,-1,-1,-1],"loss_changes":[4.293319E0,3.3229234E0,1.19943075E1,3.5234704E0,2.7673876E0,0E0,6.082986E0,0E0,0E0,0E0,0E0,0E0,0E0],"parents":[2147483647,0,0,1,1,2,2,3,3,4,4,6,6],"right_children":[2,4,6,8,10,-1,12,-1,-1,-1,-1,-1,-1],"split_conditions":[1.3360421E-2,1.3789255E-2,1E0,9.7363305E-1,3.0085603E-2,-3.960413E-2,1E0,8.7199145E-4,1.4749698E-2,2.180545E-3,-2.1545047E-2,-6.74545E-3,1.5176566E-2],"split_indices":[5,12,5,6,4,0,4,0,0,0,0,0,0],"split_type":[0,0,0,0,0,0,0,0,0,0,0,0,0],"sum_hessian":[1.5995668E2,8.936014E1,7.059654E1,7.5561905E1,1.3798229E1,6.8335166E0,6.3763027E1,5.219941E1,2.33625E1,7.4869413E0,6.311288E0,5.1375816E1,1.2387211E1],"tree_param":{"num_deleted":"0","num_feature":"13","num_nodes":"13","size_leaf_vector":"1"}},{"base_weights":[-9.139963E-3,-7.326348E-2,5.092806E-1,-1.6243899E-1,1.8384497E-1,2.3497473E-2,-0E0,-1.9089904E-2,-1.2472195E-3,2.2764402E-2,1.1506396E-3],"categories":[],"categories_nodes":[],"categories_segments":[],"categories_sizes":[],"default_left":[0,0,0,0,0,0,0,0,0,0,0],"id":56,"left_children":[1,3,5,7,9,-1,-1,-1,-1,-1,-1],"loss_changes":[5.2920637E0,3.3878703E0,2.4601126E0,6.0391684E0,2.84171E0,0E0,0E0,0E0,0E0,0E0,0E0],"parents":[2147483647,0,0,1,1,2,2,3,3,4,4],"right_children":[2,4,6,8,10,-1,-1,-1,-1,-1,-1],"split_conditions":[1E0,1E0,3.0085603E-2,8.766536E-1,6.251294E-1,2.3497473E-2,-0E0,-1.9089904E-2,-1.2472195E-3,2.2764402E-2,1.1506396E-3],"split_indices":[12,4,4,0,0,0,0,0,0,0,0],"split_type":[0,0,0,0,0,0,0,0,0,0,0],"sum_hessian":[1.5888359E2,1.4343779E2,1.5445804E1,1.0791262E2,3.5525177E1,9.385835E0,6.0599685E0,1.9691986E1,8.8220634E1,5.055006E0,3.0470171E1],"tree_param":{"num_deleted":"0","num_feature":"13","num_nodes":"11","size_leaf_vector":"1"}},{"base_weights":[-1.1028318E-2,-3.6442035E-1,1.4551575E-1,-1.3356435E-1,-3.4100562E-2,3.2357523E-1,-8.4600985E-2,-1.5006489E-2,-0E0,2.0391956E-2,-3.184124E-4,1.6088646E-2,-6.7851203E-3],"categories":[],"categories_nodes":[],"categories_segments":[],"categories_sizes":[],"default_left":[0,0,0,0,0,0,0,0,0,0,0,0,0],"id":57,"left_children":[1,3,5,7,-1,9,11,-1,-1,-1,-1,-1,-1],"loss_changes":[8.976267E0,8.232388E0,4.6801615E0,2.129692E0,0E0,7.8093696E0,4.485732E0,0E0,0E0,0E0,0E0,0E0,0E0],"parents":[2147483647,0,0,1,1,2,2,3,3,5,5,6,6],"right_children":[2,4,6,8,-1,10,12,-1,-1,-1,-1,-1,-1],"split_conditions":[1E0,1.2723871E-2,1.3360421E-2,9.4476575E-1,-3.4100562E-2,2.5350744E-2,6.950409E-2,-1.5006489E-2,-0E0,2.0391956E-2,-3.184124E-4,1.6088646E-2,-6.7851203E-3],"split_indices":[3,3,5,1,0,8,2,0,0,0,0,0,0],"split_type":[0,0,0,0,0,0,0,0,0,0,0,0,0],"sum_hessian":[1.5715239E2,4.8016838E1,1.09135544E2,3.907144E1,8.945397E0,6.180418E1,4.7331364E1,9.439631E0,2.9631811E1,2.9352242E1,3.2451942E1,7.3594136E0,3.997195E1],"tree_param":{"num_deleted":"0","num_feature":"13","num_nodes":"13","size_leaf_vector":"1"}},{"base_weights":[3.1918198E-2,-2.6725493E-2,4.84428E-1,4.293331E-1,-1.13036595E-1,2.1510063E-2,7.548888E-5,3.217652E-2,-2.6708278E-3,-3.8238756E-2,2.2679778E-4],"categories":[],"categories_nodes":[],"categories_segments":[],"categories_sizes":[],"default_left":[0,0,0,0,0,0,0,0,0,0,0],"id":58,"left_children":[1,3,5,7,9,-1,-1,-1,-1,-1,-1],"loss_changes":[4.2201037E0,5.3810024E0,1.8238573E0,7.690982E0,1.6794466E1,0E0,0E0,0E0,0E0,0E0,0E0],"parents":[2147483647,0,0,1,1,2,2,3,3,4,4],"right_children":[2,4,6,8,10,-1,-1,-1,-1,-1,-1],"split_conditions":[1E0,1.8221825E-2,3.0085603E-2,1.3360421E-2,1E0,2.1510063E-2,7.548888E-5,3.217652E-2,-2.6708278E-3,-3.8238756E-2,2.2679778E-4],"split_indices":[12,1,4,5,1,0,0,0,0,0,0],"split_type":[0,0,0,0,0,0,0,0,0,0,0],"sum_hessian":[1.5087804E2,1.3464714E2,1.623089E1,1.9609316E1,1.1503783E2,9.86958E0,6.3613095E0,8.0548315E0,1.1554484E1,9.253815E0,1.0578401E2],"tree_param":{"num_deleted":"0","num_feature":"13","num_nodes":"11","size_leaf_vector":"1"}},{"base_weights":[-2.5129171E-2,8.463134E-2,-3.5005024E-1,2.7977634E-2,1.9138765E-2,-3.3424374E-2,-1.2583415E-1,-5.861671E-3,3.8939023E-3,5.3228475E-3,-1.1660844E-2],"categories":[],"categories_nodes":[],"categories_segments":[],"categories_sizes":[],"default_left":[0,0,0,0,0,0,0,0,0,0,0],"id":59,"left_children":[1,3,5,7,-1,-1,9,-1,-1,-1,-1],"loss_changes":[5.8905168E0,3.5724463E0,6.5093765E0,2.5958605E0,0E0,0E0,2.981582E0,0E0,0E0,0E0,0E0],"parents":[2147483647,0,0,1,1,2,2,3,3,6,6],"right_children":[2,4,6,8,-1,-1,10,-1,-1,-1,-1],"split_conditions":[1.2723871E-2,9.306387E-1,1E0,1E0,1.9138765E-2,-3.3424374E-2,2.5350744E-2,-5.861671E-3,3.8939023E-3,5.3228475E-3,-1.1660844E-2],"split_indices":[9,7,9,3,0,0,8,0,0,0,0],"split_type":[0,0,0,0,0,0,0,0,0,0,0],"sum_hessian":[1.5927527E2,1.1947244E2,3.9802826E1,1.107739E2,8.698541E0,6.9255223E0,3.2877304E1,3.3186443E1,7.758746E1,1.5037393E1,1.783991E1],"tree_param":{"num_deleted":"0","num_feature":"13","num_nodes":"11","size_leaf_vector":"1"}},{"base_weights":[2.786052E-2,-2.5949553E-1,1.6547178E-1,-8.98446E-2,-3.147712E-2,2.5896598E-2,8.034244E-2,3.818545E-3,-1.4027711E-2,-1.1091996E-3,1.2039282E-2],"categories":[],"categories_nodes":[],"categories_segments":[],"categories_sizes":[],"default_left":[0,0,0,0,0,0,0,0,0,0,0],"id":60,"left_children":[1,3,5,7,-1,-1,9,-1,-1,-1,-1],"loss_changes":[6.5225663E0,6.572445E0,6.2591352E0,4.005404E0,0E0,0E0,4.011117E0,0E0,0E0,0E0,0E0],"parents":[2147483647,0,0,1,1,2,2,3,3,6,6],"right_children":[2,4,6,8,-1,-1,10,-1,-1,-1,-1],"split_conditions":[9.504115E-1,1.2723871E-2,2.9429853E-2,9.94615E-3,-3.147712E-2,2.5896598E-2,9.6405774E-1,3.818545E-3,-1.4027711E-2,-1.1091996E-3,1.2039282E-2],"split_indices":[3,3,2,11,0,0,6,0,0,0,0],"split_type":[0,0,0,0,0,0,0,0,0,0,0],"sum_hessian":[1.6148846E2,5.101301E1,1.1047545E2,4.4138626E1,6.874382E0,9.64202E0,1.00833435E2,2.8365784E1,1.5772842E1,7.445465E1,2.6378778E1],"tree_param":{"num_deleted":"0","num_feature":"13","num_nodes":"11","size_leaf_vector":"1"}},{"base_weights":[-2.117539E-2,3.1223443E-1,-8.251733E-2,1.4720428E-3,2.2845527E-2,-3.7868667E-2,-1.16147725E-2,1.0566132E-2,-2.5219508E-3],"categories":[],"categories_nodes":[],"categories_segments":[],"categories_sizes":[],"default_left":[0,0,0,0,0,0,0,0,0],"id":61,"left_children":[1,3,5,-1,-1,-1,7,-1,-1],"loss_changes":[3.2202997E0,2.550258E0,1.0968808E1,0E0,0E0,0E0,3.4210799E0,0E0,0E0],"parents":[2147483647,0,0,1,1,2,2,6,6],"right_children":[2,4,6,-1,-1,-1,8,-1,-1],"split_conditions":[1.4544666E-2,6.279819E-1,1E0,1.4720428E-3,2.2845527E-2,-3.7868667E-2,1.8221825E-2,1.0566132E-2,-2.5219508E-3],"split_indices":[0,4,0,0,0,0,1,0,0],"split_type":[0,0,0,0,0,0,0,0,0],"sum_hessian":[1.5630649E2,2.2257936E1,1.3404855E2,1.5856308E1,6.4016285E0,5.454349E0,1.2859421E2,1.9385208E1,1.0920899E2],"tree_param":{"num_deleted":"0","num_feature":"13","num_nodes":"9","size_leaf_vector":"1"}},{"base_weights":[4.228771E-2,-6.670483E-2,2.9938692E-1,7.161553E-2,-4.3477714E-2,4.1298687E-1,-1.6301753E-3,-5.7735556E-4,1.5054946E-2,3.0209783E-3,1.7977832E-2],"categories":[],"categories_nodes":[],"categories_segments":[],"categories_sizes":[],"default_left":[0,0,0,0,0,0,0,0,0,0,0],"id":62,"left_children":[1,3,5,7,-1,9,-1,-1,-1,-1,-1],"loss_changes":[4.57743E0,2.2189245E1,2.1074276E0,4.238634E0,0E0,1.8623209E0,0E0,0E0,0E0,0E0,0E0],"parents":[2147483647,0,0,1,1,2,2,3,3,5,5],"right_children":[2,4,6,8,-1,10,-1,-1,-1,-1,-1],"split_conditions":[1E0,1.2154475E-2,4.0086934E-1,4.8863637E-1,-4.3477714E-2,1.9318181E-1,-1.6301753E-3,-5.7735556E-4,1.5054946E-2,3.0209783E-3,1.7977832E-2],"split_indices":[6,6,2,2,0,2,0,0,0,0,0],"split_type":[0,0,0,0,0,0,0,0,0,0,0],"sum_hessian":[1.5743547E2,1.10784584E2,4.6650883E1,1.0223561E2,8.548967E0,3.569909E1,1.0951796E1,8.541034E1,1.6825274E1,1.5090943E1,2.0608145E1],"tree_param":{"num_deleted":"0","num_feature":"13","num_nodes":"11","size_leaf_vector":"1"}},{"base_weights":[-4.847325E-3,-2.736036E-1,1.1852251E-1,-1.1358295E-1,-3.0335933E-2,-0E0,4.3637586E-1,5.687332E-4,-1.3069058E-2,-1.3275345E-2,2.996071E-3,3.0685908E-3,3.0920004E-2],"categories":[],"categories_nodes":[],"categories_segments":[],"categories_sizes":[],"default_left":[0,0,0,0,0,0,0,0,0,0,0,0,0],"id":63,"left_children":[1,3,5,7,-1,9,11,-1,-1,-1,-1,-1,-1],"loss_changes":[5.158444E0,5.247103E0,3.870358E0,1.9797977E0,0E0,3.509091E0,5.022029E0,0E0,0E0,0E0,0E0,0E0,0E0],"parents":[2147483647,0,0,1,1,2,2,3,3,5,5,6,6],"right_children":[2,4,6,8,-1,10,12,-1,-1,-1,-1,-1,-1],"split_conditions":[9.758521E-1,1.2723871E-2,9.966368E-1,1.2723871E-2,-3.0335933E-2,9.3272847E-1,9.8621076E-1,5.687332E-4,-1.3069058E-2,-1.3275345E-2,2.996071E-3,3.0685908E-3,3.0920004E-2],"split_indices":[3,3,4,9,0,0,5,0,0,0,0,0,0],"split_type":[0,0,0,0,0,0,0,0,0,0,0,0,0],"sum_hessian":[1.502198E2,4.7260624E1,1.02959175E2,4.1066074E1,6.1945515E0,7.689137E1,2.6067804E1,2.9766432E1,1.1299641E1,1.2540771E1,6.43506E1,1.8510748E1,7.557058E0],"tree_param":{"num_deleted":"0","num_feature":"13","num_nodes":"13","size_leaf_vector":"1"}},{"base_weights":[-2.3413261E-2,1.075464E-1,-2.6430073E-1,-8.754096E-2,3.7882882E-1,-3.956785E-2,2.2985728E-2,-2.183382E-2,4.454674E-3,1.843403E-2,-7.01354E-3,1.1746856E-2,-4.3403883E-3],"categories":[],"categories_nodes":[],"categories_segments":[],"categories_sizes":[],"default_left":[0,0,0,0,0,0,0,0,0,0,0,0,0],"id":64,"left_children":[1,3,5,7,9,-1,11,-1,-1,-1,-1,-1,-1],"loss_changes":[5.1713853E0,5.6936073E0,1.800988E1,9.739778E0,6.869522E0,0E0,3.1099527E0,0E0,0E0,0E0,0E0,0E0,0E0],"parents":[2147483647,0,0,1,1,2,2,3,3,4,4,6,6],"right_children":[2,4,6,8,10,-1,12,-1,-1,-1,-1,-1,-1],"split_conditions":[9.94615E-3,1E0,1E0,1.7045455E-1,1.2723871E-2,-3.956785E-2,1.7048249E-1,-2.183382E-2,4.454674E-3,1.843403E-2,-7.01354E-3,1.1746856E-2,-4.3403883E-3],"split_indices":[11,8,11,2,9,0,2,0,0,0,0,0,0],"split_type":[0,0,0,0,0,0,0,0,0,0,0,0,0],"sum_hessian":[1.5863597E2,1.0267688E2,5.59591E1,5.987076E1,4.2806114E1,1.0666114E1,4.5292984E1,1.534638E1,4.4524384E1,3.1264156E1,1.1541959E1,1.388604E1,3.1406946E1],"tree_param":{"num_deleted":"0","num_feature":"13","num_nodes":"13","size_leaf_vector":"1"}},{"base_weights":[5.5339526E-2,1.8000561E-1,-1.6160792E-1,5.639137E-1,9.267781E-2,-3.806866E-2,9.4848886E-2,2.6010554E-2,4.5063193E-3,1.2976378E-3,1.8019784E-2,-8.2630245E-3,8.401677E-3],"categories":[],"categories_nodes":[],"categories_segments":[],"categories_sizes":[],"default_left":[0,0,0,0,0,0,0,0,0,0,0,0,0],"id":65,"left_children":[1,3,5,7,9,-1,11,-1,-1,-1,-1,-1,-1],"loss_changes":[4.3636904E0,3.1447015E0,1.711976E1,1.693881E0,1.9334002E0,0E0,3.5087087E0,0E0,0E0,0E0,0E0,0E0,0E0],"parents":[2147483647,0,0,1,1,2,2,3,3,4,4,6,6],"right_children":[2,4,6,8,10,-1,12,-1,-1,-1,-1,-1,-1],"split_conditions":[9.94615E-3,1.8221825E-2,9.929648E-1,1.3360421E-2,9.306387E-1,-3.806866E-2,9.50062E-1,2.6010554E-2,4.5063193E-3,1.2976378E-3,1.8019784E-2,-8.2630245E-3,8.401677E-3],"split_indices":[11,1,11,5,7,0,3,0,0,0,0,0,0],"split_type":[0,0,0,0,0,0,0,0,0,0,0,0,0],"sum_hessian":[1.5698811E2,1.0079243E2,5.6195694E1,1.6019169E1,8.4773254E1,9.302487E0,4.6893208E1,7.562066E0,8.457103E0,7.977277E1,5.000484E0,1.4769835E1,3.212337E1],"tree_param":{"num_deleted":"0","num_feature":"13","num_nodes":"13","size_leaf_vector":"1"}},{"base_weights":[-5.6223378E-2,-1.1932274E-1,4.6586832E-1,-0E0,-3.2558236E-1,1.8376512E-2,2.664229E-3,-6.123548E-3,9.65447E-3,-3.856672E-2,-8.4625196E-4],"categories":[],"categories_nodes":[],"categories_segments":[],"categories_sizes":[],"default_left":[0,0,0,0,0,0,0,0,0,0,0],"id":66,"left_children":[1,3,5,7,9,-1,-1,-1,-1,-1,-1],"loss_changes":[5.2999997E0,3.6622028E0,6.331334E-1,6.2939215E0,1.4972504E1,0E0,0E0,0E0,0E0,0E0,0E0],"parents":[2147483647,0,0,1,1,2,2,3,3,4,4],"right_children":[2,4,6,8,10,-1,-1,-1,-1,-1,-1],"split_conditions":[1E0,9.94615E-3,1.2154475E-2,1E0,1E0,1.8376512E-2,2.664229E-3,-6.123548E-3,9.65447E-3,-3.856672E-2,-8.4625196E-4],"split_indices":[12,11,6,8,11,0,0,0,0,0,0],"split_type":[0,0,0,0,0,0,0,0,0,0,0],"sum_hessian":[1.5866177E2,1.4344295E2,1.52188225E1,9.135995E1,5.2083004E1,9.484504E0,5.734319E0,5.5867546E1,3.54924E1,1.0507632E1,4.157537E1],"tree_param":{"num_deleted":"0","num_feature":"13","num_nodes":"11","size_leaf_vector":"1"}},{"base_weights":[-4.59121E-2,-1.3392569E-1,1.9624555E-1,-5.8491852E-2,-3.735962E-2,-8.943025E-2,8.0875045E-1,3.3054212E-3,-7.507233E-3,4.4449396E-3,-1.23751415E-2,4.8619043E-3,3.311454E-2],"categories":[],"categories_nodes":[],"categories_segments":[],"categories_sizes":[],"default_left":[0,0,0,0,0,0,0,0,0,0,0,0,0],"id":67,"left_children":[1,3,5,7,-1,9,11,-1,-1,-1,-1,-1,-1],"loss_changes":[3.4879556E0,9.604048E0,7.902663E0,3.8367355E0,0E0,2.5704606E0,1.9802132E0,0E0,0E0,0E0,0E0,0E0,0E0],"parents":[2147483647,0,0,1,1,2,2,3,3,5,5,6,6],"right_children":[2,4,6,8,-1,10,12,-1,-1,-1,-1,-1,-1],"split_conditions":[1E0,3.0085603E-2,9.8621076E-1,1.3360421E-2,-3.735962E-2,1.2154475E-2,1E0,3.3054212E-3,-7.507233E-3,4.4449396E-3,-1.23751415E-2,4.8619043E-3,3.311454E-2],"split_indices":[4,4,5,5,0,6,3,0,0,0,0,0,0],"split_type":[0,0,0,0,0,0,0,0,0,0,0,0,0],"sum_hessian":[1.6006354E2,1.1895971E2,4.1103832E1,1.13622955E2,5.3367534E0,2.8861061E1,1.2242771E1,6.0069206E1,5.3553745E1,1.6719465E1,1.2141597E1,5.125229E0,7.1175423E0],"tree_param":{"num_deleted":"0","num_feature":"13","num_nodes":"13","size_leaf_vector":"1"}},{"base_weights":[-1.5434807E-3,3.300954E-1,-7.320373E-2,2.3951152E-2,-6.654096E-2,-3.6332145E-2,1.827722E-2,-6.588316E-3,9.0397144E-4,-1.1397277E-3,1.4713505E-2],"categories":[],"categories_nodes":[],"categories_segments":[],"categories_sizes":[],"default_left":[0,0,0,0,0,0,0,0,0,0,0],"id":68,"left_children":[1,3,5,-1,7,-1,9,-1,-1,-1,-1],"loss_changes":[3.7491808E0,5.501383E0,1.4257163E1,0E0,3.1551346E-1,0E0,3.4920187E0,0E0,0E0,0E0,0E0],"parents":[2147483647,0,0,1,1,2,2,4,4,6,6],"right_children":[2,4,6,-1,8,-1,10,-1,-1,-1,-1],"split_conditions":[1.8221825E-2,1.3360421E-2,1E0,2.3951152E-2,2.367464E-1,-3.6332145E-2,9.2658764E-1,-6.588316E-3,9.0397144E-4,-1.1397277E-3,1.4713505E-2],"split_indices":[1,5,1,0,2,0,12,0,0,0,0],"split_type":[0,0,0,0,0,0,0,0,0,0,0],"sum_hessian":[1.5696773E2,2.5865355E1,1.3110237E2,1.1279368E1,1.4585987E1,8.178467E0,1.22923904E2,5.8628354E0,8.723151E0,1.10910576E2,1.2013328E1],"tree_param":{"num_deleted":"0","num_feature":"13","num_nodes":"11","size_leaf_vector":"1"}},{"base_weights":[-5.391937E-2,-1.21306814E-1,4.2124477E-1,3.0543031E-2,-3.0192703E-1,2.4624174E-2,3.864843E-4,2.6277777E-2,-2.7686218E-3,-3.8654402E-2,-4.060077E-3],"categories":[],"categories_nodes":[],"categories_segments":[],"categories_sizes":[],"default_left":[0,0,0,0,0,0,0,0,0,0,0],"id":69,"left_children":[1,3,5,7,9,-1,-1,-1,-1,-1,-1],"loss_changes":[5.105414E0,3.9783847E0,2.935034E0,8.4690275E0,1.0017599E1,0E0,0E0,0E0,0E0,0E0,0E0],"parents":[2147483647,0,0,1,1,2,2,3,3,4,4],"right_children":[2,4,6,8,10,-1,-1,-1,-1,-1,-1],"split_conditions":[1E0,1.3360421E-2,2.5350744E-2,1.8221825E-2,1E0,2.4624174E-2,3.864843E-4,2.6277777E-2,-2.7686218E-3,-3.8654402E-2,-4.060077E-3],"split_indices":[12,5,8,1,5,0,0,0,0,0,0],"split_type":[0,0,0,0,0,0,0,0,0,0,0],"sum_hessian":[1.5706247E2,1.3941193E2,1.765053E1,7.573845E1,6.367348E1,7.52908E0,1.012145E1,8.362615E0,6.737583E1,6.992759E0,5.6680725E1],"tree_param":{"num_deleted":"0","num_feature":"13","num_nodes":"11","size_leaf_vector":"1"}},{"base_weights":[-1.4315994E-2,8.016868E-2,-3.2296193E-1,2.4634104E-2,1.9917592E-2,-3.1371903E-2,-1.19668856E-1,1.1752568E-2,-1.2172277E-3,1.1282008E-2,-8.000968E-3],"categories":[],"categories_nodes":[],"categories_segments":[],"categories_sizes":[],"default_left":[0,0,0,0,0,0,0,0,0,0,0],"id":70,"left_children":[1,3,5,7,-1,-1,9,-1,-1,-1,-1],"loss_changes":[4.84812E0,3.808743E0,5.1458893E0,2.9276652E0,0E0,0E0,2.5805688E0,0E0,0E0,0E0,0E0],"parents":[2147483647,0,0,1,1,2,2,3,3,6,6],"right_children":[2,4,6,8,-1,-1,10,-1,-1,-1,-1],"split_conditions":[1.2723871E-2,1E0,9.9005383E-1,1.8221825E-2,1.9917592E-2,-3.1371903E-2,1.7048249E-1,1.1752568E-2,-1.2172277E-3,1.1282008E-2,-8.000968E-3],"split_indices":[9,7,9,1,0,0,2,0,0,0,0],"split_type":[0,0,0,0,0,0,0,0,0,0,0],"sum_hessian":[1.5997273E2,1.2286809E2,3.710464E1,1.1456717E2,8.300918E0,6.0020256E0,3.1102617E1,1.6463596E1,9.810358E1,5.9352036E0,2.5167414E1],"tree_param":{"num_deleted":"0","num_feature":"13","num_nodes":"11","size_leaf_vector":"1"}},{"base_weights":[-8.273957E-2,7.409454E-3,-3.8031572E-1,-2.7134731E-2,1.7478256E-2,-3.283592E-2,-1.3697787E-1,9.700931E-3,-2.794581E-3,-1.855071E-2,3.3695605E-3],"categories":[],"categories_nodes":[],"categories_segments":[],"categories_sizes":[],"default_left":[0,0,0,0,0,0,0,0,0,0,0],"id":71,"left_children":[1,3,5,7,-1,-1,9,-1,-1,-1,-1],"loss_changes":[4.4616203E0,2.6913671E0,6.0154223E0,2.7628639E0,0E0,0E0,4.045486E0,0E0,0E0,0E0,0E0],"parents":[2147483647,0,0,1,1,2,2,3,3,6,6],"right_children":[2,4,6,8,-1,-1,10,-1,-1,-1,-1],"split_conditions":[1.2723871E-2,6.0227275E-1,1E0,1.4544666E-2,1.7478256E-2,-3.283592E-2,9.506071E-1,9.700931E-3,-2.794581E-3,-1.855071E-2,3.3695605E-3],"split_indices":[9,2,9,0,0,0,3,0,0,0,0],"split_type":[0,0,0,0,0,0,0,0,0,0,0],"sum_hessian":[1.5993546E2,1.23472275E2,3.6463177E1,1.177828E2,5.689478E0,7.175047E0,2.9288132E1,1.6712612E1,1.0107019E2,9.393099E0,1.9895033E1],"tree_param":{"num_deleted":"0","num_feature":"13","num_nodes":"11","size_leaf_vector":"1"}},{"base_weights":[5.5482693E-2,2.121745E-1,-2.2492479E-1,9.374791E-2,4.696411E-1,-3.719034E-2,3.7763007E-2,8.111395E-3,-3.8746845E-2,-0E0,2.1906676E-2,1.3773318E-2,-4.134636E-3],"categories":[],"categories_nodes":[],"categories_segments":[],"categories_sizes":[],"default_left":[0,0,0,0,0,0,0,0,0,0,0,0,0],"id":72,"left_children":[1,3,5,7,9,-1,11,-1,-1,-1,-1,-1,-1],"loss_changes":[6.8645306E0,2.8104544E0,1.5260142E1,1.8060074E1,3.8468795E0,0E0,3.6133862E0,0E0,0E0,0E0,0E0,0E0,0E0],"parents":[2147483647,0,0,1,1,2,2,3,3,4,4,6,6],"right_children":[2,4,6,8,10,-1,12,-1,-1,-1,-1,-1,-1],"split_conditions":[9.94615E-3,9.6405774E-1,1E0,1.2154475E-2,9.028235E-1,-3.719034E-2,1.7048249E-1,8.111395E-3,-3.8746845E-2,-0E0,2.1906676E-2,1.3773318E-2,-4.134636E-3],"split_indices":[11,6,11,6,3,0,2,0,0,0,0,0,0],"split_type":[0,0,0,0,0,0,0,0,0,0,0,0,0],"sum_hessian":[1.5214851E2,9.8604706E1,5.3543808E1,7.02057E1,2.8399E1,9.715771E0,4.3828037E1,6.388619E1,6.319514E0,1.0610415E1,1.7788586E1,1.2444399E1,3.1383636E1],"tree_param":{"num_deleted":"0","num_feature":"13","num_nodes":"13","size_leaf_vector":"1"}},{"base_weights":[-4.5571424E-2,-2.701283E-1,5.6893308E-2,-8.498825E-2,-3.0823687E-2,-4.973782E-2,3.4523532E-1,-8.413945E-3,6.1278814E-3,4.9514486E-3,-7.6781656E-3,1.8738167E-3,2.6753848E-2],"categories":[],"categories_nodes":[],"categories_segments":[],"categories_sizes":[],"default_left":[0,0,0,0,0,0,0,0,0,0,0,0,0],"id":73,"left_children":[1,3,5,7,-1,9,11,-1,-1,-1,-1,-1,-1],"loss_changes":[3.662331E0,6.480816E0,3.419139E0,2.5435154E0,0E0,3.6217241E0,4.231743E0,0E0,0E0,0E0,0E0,0E0,0E0],"parents":[2147483647,0,0,1,1,2,2,3,3,5,5,6,6],"right_children":[2,4,6,8,-1,10,12,-1,-1,-1,-1,-1,-1],"split_conditions":[9.758521E-1,1.2723871E-2,9.734887E-1,9.966368E-1,-3.0823687E-2,1.3360421E-2,6.2030953E-1,-8.413945E-3,6.1278814E-3,4.9514486E-3,-7.6781656E-3,1.8738167E-3,2.6753848E-2],"split_indices":[3,3,4,8,0,5,5,0,0,0,0,0,0],"split_type":[0,0,0,0,0,0,0,0,0,0,0,0,0],"sum_hessian":[1.5305232E2,4.7847412E1,1.0520491E2,4.0553967E1,7.293446E0,7.725134E1,2.795357E1,2.485488E1,1.5699085E1,3.7320885E1,3.9930454E1,2.0252787E1,7.7007823E0],"tree_param":{"num_deleted":"0","num_feature":"13","num_nodes":"13","size_leaf_vector":"1"}},{"base_weights":[-1.3103427E-2,1.7575298E-2,-6.658958E-2,-1.4735806E-1,3.5085678E-1,1.307721E-4,-1.2282407E-2,1.8662004E-2,3.3273597E-3],"categories":[],"categories_nodes":[],"categories_segments":[],"categories_sizes":[],"default_left":[0,0,0,0,0,0,0,0,0],"id":74,"left_children":[1,-1,3,5,7,-1,-1,-1,-1],"loss_changes":[5.0426383E0,0E0,5.0657125E0,5.1682444E0,1.2132146E0,0E0,0E0,0E0,0E0],"parents":[2147483647,0,0,2,2,3,3,4,4],"right_children":[2,-1,4,6,8,-1,-1,-1,-1],"split_conditions":[1.9837594E-2,1.7575298E-2,4.8863637E-1,9.94615E-3,5.525209E-1,1.307721E-4,-1.2282407E-2,1.8662004E-2,3.3273597E-3],"split_indices":[2,0,2,11,2,0,0,0,0],"split_type":[0,0,0,0,0,0,0,0,0],"sum_hessian":[1.5783568E2,1.0847566E1,1.4698811E2,1.2484539E2,2.2142715E1,7.958916E1,4.5256233E1,8.312129E0,1.3830586E1],"tree_param":{"num_deleted":"0","num_feature":"13","num_nodes":"9","size_leaf_vector":"1"}},{"base_weights":[-2.1836057E-2,3.5261777E-1,-8.180505E-2,7.211412E-2,2.2277566E-2,4.177028E-2,-3.1421474E-1,-7.922787E-3,1.7712027E-2,-3.1083764E-3,1.2292885E-2,-3.597349E-2,-1.4229416E-3],"categories":[],"categories_nodes":[],"categories_segments":[],"categories_sizes":[],"default_left":[0,0,0,0,0,0,0,0,0,0,0,0,0],"id":75,"left_children":[1,3,5,7,-1,9,11,-1,-1,-1,-1,-1,-1],"loss_changes":[3.5914323E0,2.0450215E0,4.1596665E0,3.0941427E0,0E0,5.1535897E0,1.1327845E1,0E0,0E0,0E0,0E0,0E0,0E0],"parents":[2147483647,0,0,1,1,2,2,3,3,5,5,6,6],"right_children":[2,4,6,8,-1,10,12,-1,-1,-1,-1,-1,-1],"split_conditions":[6.950409E-2,5.523427E-2,9.94615E-3,1.3360421E-2,2.2277566E-2,1E0,1E0,-7.922787E-3,1.7712027E-2,-3.1083764E-3,1.2292885E-2,-3.597349E-2,-1.4229416E-3],"split_indices":[2,11,11,5,0,6,11,0,0,0,0,0,0],"split_type":[0,0,0,0,0,0,0,0,0,0,0,0,0],"sum_hessian":[1.589835E2,1.9908678E1,1.3907483E2,1.3405354E1,6.5033236E0,9.102522E1,4.804961E1,8.374789E0,5.030565E0,6.569338E1,2.533184E1,9.25094E0,3.8798668E1],"tree_param":{"num_deleted":"0","num_feature":"13","num_nodes":"13","size_leaf_vector":"1"}},{"base_weights":[1.5687884E-3,8.430923E-2,-2.3967353E-1,3.945612E-2,2.0477168E-2,-3.007343E-2,-4.615518E-2,9.481612E-3,-3.1410012E-4,-1.3517382E-2,2.7061296E-3],"categories":[],"categories_nodes":[],"categories_segments":[],"categories_sizes":[],"default_left":[0,0,0,0,0,0,0,0,0,0,0],"id":76,"left_children":[1,3,5,7,-1,-1,9,-1,-1,-1,-1],"loss_changes":[3.1234207E0,2.9269025E0,5.443655E0,1.6647403E0,0E0,0E0,2.0658224E0,0E0,0E0,0E0,0E0],"parents":[2147483647,0,0,1,1,2,2,3,3,6,6],"right_children":[2,4,6,8,-1,-1,10,-1,-1,-1,-1],"split_conditions":[1.2723871E-2,6.0227275E-1,9.9005383E-1,1.8221825E-2,2.0477168E-2,-3.007343E-2,9.497999E-1,9.481612E-3,-3.1410012E-4,-1.3517382E-2,2.7061296E-3],"split_indices":[9,2,9,1,0,0,1,0,0,0,0],"split_type":[0,0,0,0,0,0,0,0,0,0,0],"sum_hessian":[1.5479051E2,1.17154045E2,3.7636475E1,1.11433014E2,5.721026E0,5.61072E0,3.2025757E1,1.6327032E1,9.510599E1,7.468006E0,2.4557749E1],"tree_param":{"num_deleted":"0","num_feature":"13","num_nodes":"11","size_leaf_vector":"1"}},{"base_weights":[6.4036474E-3,1.2938346E-1,-2.1830283E-1,2.9127282E-1,-7.632512E-2,-3.4184624E-2,-1.5866895E-4,1.2699558E-2,1.3869267E-4,-6.0984124E-3,1.1983875E-2,-3.6870823E-3,8.209448E-3],"categories":[],"categories_nodes":[],"categories_segments":[],"categories_sizes":[],"default_left":[0,0,0,0,0,0,0,0,0,0,0,0,0],"id":77,"left_children":[1,3,5,7,9,-1,11,-1,-1,-1,-1,-1,-1],"loss_changes":[4.2904906E0,3.497895E0,1.0592784E1,2.06982E0,2.8570738E0,0E0,1.5767903E0,0E0,0E0,0E0,0E0,0E0,0E0],"parents":[2147483647,0,0,1,1,2,2,3,3,4,4,6,6],"right_children":[2,4,6,8,10,-1,12,-1,-1,-1,-1,-1,-1],"split_conditions":[9.94615E-3,1.3360421E-2,9.929648E-1,3.0085603E-2,7.526519E-1,-3.4184624E-2,9.734887E-1,1.2699558E-2,1.3869267E-4,-6.0984124E-3,1.1983875E-2,-3.6870823E-3,8.209448E-3],"split_indices":[11,5,11,4,4,0,4,0,0,0,0,0,0],"split_type":[0,0,0,0,0,0,0,0,0,0,0,0,0],"sum_hessian":[1.5218042E2,9.976399E1,5.2416428E1,5.6178715E1,4.3585278E1,8.155372E0,4.4261055E1,3.709205E1,1.9086666E1,3.580689E1,7.778386E0,3.207858E1,1.2182477E1],"tree_param":{"num_deleted":"0","num_feature":"13","num_nodes":"13","size_leaf_vector":"1"}},{"base_weights":[-3.952065E-2,1.2318134E-1,-2.3213606E-1,-3.4488723E-1,2.6475376E-1,-3.8772922E-2,-5.805604E-2,1.4911345E-3,-3.3009615E-2,3.4163303E-3,1.984267E-2,3.767186E-3,-1.1860778E-2],"categories":[],"categories_nodes":[],"categories_segments":[],"categories_sizes":[],"default_left":[0,0,0,0,0,0,0,0,0,0,0,0,0],"id":78,"left_children":[1,3,5,7,9,-1,11,-1,-1,-1,-1,-1,-1],"loss_changes":[4.9970884E0,5.814102E0,1.2962966E1,6.4446845E0,3.6355762E0,0E0,4.221567E0,0E0,0E0,0E0,0E0,0E0,0E0],"parents":[2147483647,0,0,1,1,2,2,3,3,4,4,6,6],"right_children":[2,4,6,8,10,-1,12,-1,-1,-1,-1,-1,-1],"split_conditions":[2.5350744E-2,1E0,9.891623E-1,1.8221825E-2,1E0,-3.8772922E-2,1.3998936E-2,1.4911345E-3,-3.3009615E-2,3.4163303E-3,1.984267E-2,3.767186E-3,-1.1860778E-2],"split_indices":[8,1,8,1,10,0,10,0,0,0,0,0,0],"split_type":[0,0,0,0,0,0,0,0,0,0,0,0,0],"sum_hessian":[1.5458531E2,8.334627E1,7.123904E1,1.8195797E1,6.5150475E1,7.991569E0,6.3247467E1,1.2918995E1,5.2768016E0,4.9611E1,1.55394745E1,4.1189693E1,2.2057772E1],"tree_param":{"num_deleted":"0","num_feature":"13","num_nodes":"13","size_leaf_vector":"1"}},{"base_weights":[1.5868078E-3,-2.2693226E-1,1.1555086E-1,-3.981052E-2,-3.1119017E-2,5.0712836E-1,2.8350737E-2,-1.4168069E-2,1.8888087E-3,2.3080222E-2,-1.3860615E-3,-3.2389602E-3,1.15171615E-2],"categories":[],"categories_nodes":[],"categories_segments":[],"categories_sizes":[],"default_left":[0,0,0,0,0,0,0,0,0,0,0,0,0],"id":79,"left_children":[1,3,5,7,-1,9,11,-1,-1,-1,-1,-1,-1],"loss_changes":[4.137988E0,7.5443144E0,3.4891837E0,2.1810634E0,0E0,3.0268002E0,4.5692663E0,0E0,0E0,0E0,0E0,0E0,0E0],"parents":[2147483647,0,0,1,1,2,2,3,3,5,5,6,6],"right_children":[2,4,6,8,-1,10,12,-1,-1,-1,-1,-1,-1],"split_conditions":[1E0,1.2723871E-2,8.406848E-2,1E0,-3.1119017E-2,1.2154475E-2,9.6405774E-1,-1.4168069E-2,1.8888087E-3,2.3080222E-2,-1.3860615E-3,-3.2389602E-3,1.15171615E-2],"split_indices":[3,3,2,0,0,6,6,0,0,0,0,0,0],"split_type":[0,0,0,0,0,0,0,0,0,0,0,0,0],"sum_hessian":[1.5616014E2,5.042791E1,1.0573224E2,4.29734E1,7.4545107E0,1.687633E1,8.885591E1,7.4312353E0,3.5542164E1,1.1288389E1,5.5879393E0,6.4627365E1,2.4228544E1],"tree_param":{"num_deleted":"0","num_feature":"13","num_nodes":"13","size_leaf_vector":"1"}},{"base_weights":[-1.7396405E-2,-7.825732E-2,4.339803E-1,-1.6113862E-1,2.021027E-1,2.3283793E-2,-2.454192E-3,-1.6227851E-3,-4.1125514E-2,-6.4444887E-3,1.2118076E-2],"categories":[],"categories_nodes":[],"categories_segments":[],"categories_sizes":[],"default_left":[0,0,0,0,0,0,0,0,0,0,0],"id":80,"left_children":[1,3,5,7,9,-1,-1,-1,-1,-1,-1],"loss_changes":[4.306036E0,3.3442621E0,3.602071E0,1.3832634E1,2.9551086E0,0E0,0E0,0E0,0E0,0E0,0E0],"parents":[2147483647,0,0,1,1,2,2,3,3,4,4],"right_children":[2,4,6,8,10,-1,-1,-1,-1,-1,-1],"split_conditions":[1E0,1E0,3.0085603E-2,1.3998936E-2,9.504115E-1,2.3283793E-2,-2.454192E-3,-1.6227851E-3,-4.1125514E-2,-6.4444887E-3,1.2118076E-2],"split_indices":[12,10,4,10,3,0,0,0,0,0,0],"split_type":[0,0,0,0,0,0,0,0,0,0,0],"sum_hessian":[1.561594E2,1.3964798E2,1.651141E1,1.09266624E2,3.0381357E1,9.669388E0,6.8420215E0,1.02531204E2,6.7354255E0,9.383401E0,2.0997957E1],"tree_param":{"num_deleted":"0","num_feature":"13","num_nodes":"11","size_leaf_vector":"1"}},{"base_weights":[-5.3313244E-2,4.6757374E-2,-2.4321565E-1,-8.5359894E-2,3.4937838E-1,-3.4908008E-2,-6.699499E-3,2.2654217E-3,-4.004437E-2,-1.751498E-3,1.7239664E-2,-7.651598E-3,9.953491E-3],"categories":[],"categories_nodes":[],"categories_segments":[],"categories_sizes":[],"default_left":[0,0,0,0,0,0,0,0,0,0,0,0,0],"id":81,"left_children":[1,3,5,7,9,-1,11,-1,-1,-1,-1,-1,-1],"loss_changes":[3.0401309E0,4.2407856E0,1.1623896E1,1.5118867E1,3.185524E0,0E0,4.020875E0,0E0,0E0,0E0,0E0,0E0,0E0],"parents":[2147483647,0,0,1,1,2,2,3,3,4,4,6,6],"right_children":[2,4,6,8,10,-1,12,-1,-1,-1,-1,-1,-1],"split_conditions":[9.94615E-3,1E0,1E0,1.2154475E-2,6.7170066E-1,-3.4908008E-2,9.9050516E-1,2.2654217E-3,-4.004437E-2,-1.751498E-3,1.7239664E-2,-7.651598E-3,9.953491E-3],"split_indices":[11,6,11,6,3,0,5,0,0,0,0,0,0],"split_type":[0,0,0,0,0,0,0,0,0,0,0,0,0],"sum_hessian":[1.5367793E2,1.005959E2,5.3082024E1,7.033417E1,3.0261734E1,8.990042E0,4.409198E1,6.376331E1,6.570861E0,1.0822502E1,1.9439232E1,2.6227459E1,1.7864523E1],"tree_param":{"num_deleted":"0","num_feature":"13","num_nodes":"13","size_leaf_vector":"1"}},{"base_weights":[-7.058632E-2,-1.3361375E-1,4.3661073E-1,1.0361858E-2,-2.1727073E-1,-6.81491E-4,2.1982968E-2,-3.4264352E-2,-4.069554E-3],"categories":[],"categories_nodes":[],"categories_segments":[],"categories_sizes":[],"default_left":[0,0,0,0,0,0,0,0,0],"id":82,"left_children":[1,3,5,-1,7,-1,-1,-1,-1],"loss_changes":[5.0755763E0,5.8245687E0,2.6136472E0,0E0,8.601472E0,0E0,0E0,0E0,0E0],"parents":[2147483647,0,0,1,1,2,2,4,4],"right_children":[2,4,6,-1,8,-1,-1,-1,-1],"split_conditions":[9.2658764E-1,1.8221825E-2,2.048491E-1,1.0361858E-2,1E0,-6.81491E-4,2.1982968E-2,-3.4264352E-2,-4.069554E-3],"split_indices":[12,1,2,0,1,0,0,0,0],"split_type":[0,0,0,0,0,0,0,0,0],"sum_hessian":[1.5596758E2,1.4056474E2,1.5402828E1,1.9435589E1,1.2112916E2,6.3648105E0,9.038017E0,7.417216E0,1.13711945E2],"tree_param":{"num_deleted":"0","num_feature":"13","num_nodes":"9","size_leaf_vector":"1"}},{"base_weights":[-0E0,-1.270471E-1,2.0586097E-1,2.5977027E-1,-2.4424995E-1,-1.8245492E-2,8.186364E-1,1.5340969E-2,-6.5766457E-3,-3.2288843E-4,-1.3974791E-2,-8.509233E-3,1.1717471E-2,7.688598E-3,3.0968385E-2],"categories":[],"categories_nodes":[],"categories_segments":[],"categories_sizes":[],"default_left":[0,0,0,0,0,0,0,0,0,0,0,0,0,0,0],"id":83,"left_children":[1,3,5,7,9,11,13,-1,-1,-1,-1,-1,-1,-1,-1],"loss_changes":[4.231284E0,4.6249475E0,8.786554E0,3.140157E0,3.8745441E0,5.289836E0,1.1278534E0,0E0,0E0,0E0,0E0,0E0,0E0,0E0,0E0],"parents":[2147483647,0,0,1,1,2,2,3,3,4,4,5,5,6,6],"right_children":[2,4,6,8,10,12,14,-1,-1,-1,-1,-1,-1,-1,-1],"split_conditions":[3.409091E-1,6.950409E-2,9.5478135E-1,1.3998936E-2,1.3360421E-2,9.891623E-1,6.350936E-1,1.5340969E-2,-6.5766457E-3,-3.2288843E-4,-1.3974791E-2,-8.509233E-3,1.1717471E-2,7.688598E-3,3.0968385E-2],"split_indices":[2,2,10,10,5,8,3,0,0,0,0,0,0,0,0],"split_type":[0,0,0,0,0,0,0,0,0,0,0,0,0,0,0],"sum_hessian":[1.5733505E2,9.731834E1,6.001671E1,2.1469082E1,7.584926E1,4.5007336E1,1.5009372E1,1.4397689E1,7.071394E0,3.861239E1,3.723687E1,2.8107338E1,1.6899998E1,5.730088E0,9.2792845E0],"tree_param":{"num_deleted":"0","num_feature":"13","num_nodes":"15","size_leaf_vector":"1"}},{"base_weights":[-1.8018201E-2,7.9575315E-2,-1.946658E-1,-1.0280925E-1,3.6179918E-1,-4.152216E-2,7.605168E-2,1.0939364E-3,-3.5140026E-2,-5.199042E-4,1.442769E-2,1.2885766E-2,-7.886451E-3],"categories":[],"categories_nodes":[],"categories_segments":[],"categories_sizes":[],"default_left":[0,0,0,0,0,0,0,0,0,0,0,0,0],"id":84,"left_children":[1,3,5,7,9,-1,11,-1,-1,-1,-1,-1,-1],"loss_changes":[2.790876E0,5.4103303E0,1.9256735E1,9.796193E0,2.0160089E0,0E0,6.1320395E0,0E0,0E0,0E0,0E0,0E0,0E0],"parents":[2147483647,0,0,1,1,2,2,3,3,4,4,6,6],"right_children":[2,4,6,8,10,-1,12,-1,-1,-1,-1,-1,-1],"split_conditions":[1.2154475E-2,9.966368E-1,9.7363305E-1,2.5350744E-2,1.3063872E-1,-4.152216E-2,2.5350744E-2,1.0939364E-3,-3.5140026E-2,-5.199042E-4,1.442769E-2,1.2885766E-2,-7.886451E-3],"split_indices":[6,8,6,8,2,0,8,0,0,0,0,0,0],"split_type":[0,0,0,0,0,0,0,0,0,0,0,0,0],"sum_hessian":[1.5608708E2,1.0015476E2,5.593232E1,6.0965084E1,3.9189674E1,9.050704E0,4.6881615E1,5.5395683E1,5.5694027E0,9.176082E0,3.0013594E1,2.3120152E1,2.3761465E1],"tree_param":{"num_deleted":"0","num_feature":"13","num_nodes":"13","size_leaf_vector":"1"}},{"base_weights":[-6.0381223E-3,-1.163566E-1,3.3499587E-1,-9.573747E-4,-4.220133E-2,-8.62633E-2,5.6746167E-1,-4.5162495E-3,1.0228464E-2,7.2945766E-3,-1.5339074E-2,2.0077756E-2,3.1551644E-3],"categories":[],"categories_nodes":[],"categories_segments":[],"categories_sizes":[],"default_left":[0,0,0,0,0,0,0,0,0,0,0,0,0],"id":85,"left_children":[1,3,5,7,-1,9,11,-1,-1,-1,-1,-1,-1],"loss_changes":[5.740417E0,1.7024912E1,3.871859E0,5.6602116E0,0E0,2.3533046E0,7.848773E-1,0E0,0E0,0E0,0E0,0E0,0E0],"parents":[2147483647,0,0,1,1,2,2,3,3,5,5,6,6],"right_children":[2,4,6,8,-1,10,12,-1,-1,-1,-1,-1,-1],"split_conditions":[1E0,1.3998936E-2,8.811821E-1,9.6405774E-1,-4.220133E-2,3.0085603E-2,1.2723871E-2,-4.5162495E-3,1.0228464E-2,7.2945766E-3,-1.5339074E-2,2.0077756E-2,3.1551644E-3],"split_indices":[10,10,3,6,0,4,9,0,0,0,0,0,0],"split_type":[0,0,0,0,0,0,0,0,0,0,0,0,0],"sum_hessian":[1.5025127E2,1.1518746E2,3.506381E1,1.0778224E2,7.405224E0,1.2457135E1,2.2606672E1,7.6368004E1,3.1414238E1,7.1025357E0,5.3546E0,1.7261345E1,5.345328E0],"tree_param":{"num_deleted":"0","num_feature":"13","num_nodes":"13","size_leaf_vector":"1"}},{"base_weights":[-8.589689E-3,1.0934969E-1,-2.2097288E-1,-4.104445E-3,4.453081E-1,-4.0392097E-2,3.214886E-2,-5.392396E-3,1.6142217E-2,2.3381142E-2,1.1803248E-3,1.2179385E-2,-1.0005798E-2],"categories":[],"categories_nodes":[],"categories_segments":[],"categories_sizes":[],"default_left":[0,0,0,0,0,0,0,0,0,0,0,0,0],"id":86,"left_children":[1,3,5,7,9,-1,11,-1,-1,-1,-1,-1,-1],"loss_changes":[4.1559563E0,4.1384664E0,1.747162E1,7.68643E0,3.3811688E0,0E0,7.1860967E0,0E0,0E0,0E0,0E0,0E0,0E0],"parents":[2147483647,0,0,1,1,2,2,3,3,4,4,6,6],"right_children":[2,4,6,8,10,-1,12,-1,-1,-1,-1,-1,-1],"split_conditions":[1.2154475E-2,1E0,1E0,9.734887E-1,2.5350744E-2,-4.0392097E-2,2.5350744E-2,-5.392396E-3,1.6142217E-2,2.3381142E-2,1.1803248E-3,1.2179385E-2,-1.0005798E-2],"split_indices":[6,10,6,4,8,0,8,0,0,0,0,0,0],"split_type":[0,0,0,0,0,0,0,0,0,0,0,0,0],"sum_hessian":[1.606512E2,1.0300744E2,5.7643764E1,7.781252E1,2.519492E1,9.215703E0,4.8428062E1,6.020047E1,1.7612051E1,1.24068575E1,1.2788061E1,2.4243675E1,2.4184387E1],"tree_param":{"num_deleted":"0","num_feature":"13","num_nodes":"13","size_leaf_vector":"1"}},{"base_weights":[2.2058606E-2,1.6157275E-1,-2.1534295E-1,1.8372636E-2,4.6272242E-1,-3.4787003E-2,5.4129525E-3,4.8746644E-3,-3.524625E-2,2.0068267E-2,-1.1832389E-3,9.274644E-3,-8.163625E-3],"categories":[],"categories_nodes":[],"categories_segments":[],"categories_sizes":[],"default_left":[0,0,0,0,0,0,0,0,0,0,0,0,0],"id":87,"left_children":[1,3,5,7,9,-1,11,-1,-1,-1,-1,-1,-1],"loss_changes":[5.1889796E0,4.1338787E0,1.2334713E1,1.2160402E1,3.4870777E0,0E0,4.2510023E0,0E0,0E0,0E0,0E0,0E0,0E0],"parents":[2147483647,0,0,1,1,2,2,3,3,4,4,6,6],"right_children":[2,4,6,8,10,-1,12,-1,-1,-1,-1,-1,-1],"split_conditions":[9.94615E-3,1E0,9.929648E-1,1.2154475E-2,1.3998936E-2,-3.4787003E-2,2.5350744E-2,4.8746644E-3,-3.524625E-2,2.0068267E-2,-1.1832389E-3,9.274644E-3,-8.163625E-3],"split_indices":[11,6,11,6,10,0,8,0,0,0,0,0,0],"split_type":[0,0,0,0,0,0,0,0,0,0,0,0,0],"sum_hessian":[1.5305399E2,9.759984E1,5.5454144E1,6.825974E1,2.9340092E1,9.153986E0,4.630016E1,6.266978E1,5.5899644E0,2.0751429E1,8.588662E0,2.2513617E1,2.3786543E1],"tree_param":{"num_deleted":"0","num_feature":"13","num_nodes":"13","size_leaf_vector":"1"}},{"base_weights":[-0E0,9.550775E-2,-2.2850055E-1,1.8333482E-2,6.198472E-3,-4.0773574E-2,6.124465E-2,3.351578E-3,-9.00896E-3,-4.4014086E-3,1.3166375E-2],"categories":[],"categories_nodes":[],"categories_segments":[],"categories_sizes":[],"default_left":[0,0,0,0,0,0,0,0,0,0,0],"id":88,"left_children":[1,3,5,-1,7,-1,9,-1,-1,-1,-1],"loss_changes":[3.4496403E0,4.9658904E0,1.5788108E1,0E0,3.180133E0,0E0,3.2568104E0,0E0,0E0,0E0,0E0],"parents":[2147483647,0,0,1,1,2,2,4,4,6,6],"right_children":[2,4,6,-1,8,-1,10,-1,-1,-1,-1],"split_conditions":[1.3998936E-2,8.406848E-2,1E0,1.8333482E-2,1.2723871E-2,-4.0773574E-2,3.373069E-1,3.351578E-3,-9.00896E-3,-4.4014086E-3,1.3166375E-2],"split_indices":[10,2,10,0,9,0,2,0,0,0,0],"split_type":[0,0,0,0,0,0,0,0,0,0,0],"sum_hessian":[1.545242E2,1.10026405E2,4.4497784E1,1.4023009E1,9.60034E1,7.782704E0,3.671508E1,7.3089836E1,2.2913565E1,2.3953033E1,1.2762047E1],"tree_param":{"num_deleted":"0","num_feature":"13","num_nodes":"11","size_leaf_vector":"1"}},{"base_weights":[9.7785614E-2,2.2899121E-1,-1.3638517E-1,7.237882E-2,5.854432E-1,-3.271763E-2,4.7966864E-2,6.030738E-3,-3.3111785E-2,2.5002575E-2,-3.7444022E-3,1.4176548E-2,-4.2571803E-3],"categories":[],"categories_nodes":[],"categories_segments":[],"categories_sizes":[],"default_left":[0,0,0,0,0,0,0,0,0,0,0,0,0],"id":89,"left_children":[1,3,5,7,9,-1,11,-1,-1,-1,-1,-1,-1],"loss_changes":[4.8546004E0,5.353446E0,1.0288814E1,1.1218262E1,5.6952925E0,0E0,4.157951E0,0E0,0E0,0E0,0E0,0E0,0E0],"parents":[2147483647,0,0,1,1,2,2,3,3,4,4,6,6],"right_children":[2,4,6,8,10,-1,12,-1,-1,-1,-1,-1,-1],"split_conditions":[9.94615E-3,1E0,9.929648E-1,1.2154475E-2,1.3998936E-2,-3.271763E-2,1.7048249E-1,6.030738E-3,-3.3111785E-2,2.5002575E-2,-3.7444022E-3,1.4176548E-2,-4.2571803E-3],"split_indices":[11,6,11,6,10,0,2,0,0,0,0,0,0],"split_type":[0,0,0,0,0,0,0,0,0,0,0,0,0],"sum_hessian":[1.5306694E2,9.895047E1,5.4116474E1,7.1002304E1,2.7948166E1,7.4339957E0,4.668248E1,6.572621E1,5.2760935E0,2.0771622E1,7.1765437E0,1.3993444E1,3.2689034E1],"tree_param":{"num_deleted":"0","num_feature":"13","num_nodes":"13","size_leaf_vector":"1"}},{"base_weights":[-2.0080093E-2,3.1777126E-1,-8.93163E-2,-8.6093805E-4,4.6465963E-1,-3.324229E-2,-1.417654E-2,4.188657E-3,2.2901779E-2,-2.2028708E-3,1.4896433E-2],"categories":[],"categories_nodes":[],"categories_segments":[],"categories_sizes":[],"default_left":[0,0,0,0,0,0,0,0,0,0,0],"id":90,"left_children":[1,3,5,-1,7,-1,9,-1,-1,-1,-1],"loss_changes":[3.649265E0,1.4969835E0,9.750995E0,0E0,1.3810749E0,0E0,3.7411156E0,0E0,0E0,0E0,0E0],"parents":[2147483647,0,0,1,1,2,2,4,4,6,6],"right_children":[2,4,6,-1,8,-1,10,-1,-1,-1,-1],"split_conditions":[1.8221825E-2,1E0,1E0,-8.6093805E-4,9.891623E-1,-3.324229E-2,9.2658764E-1,4.188657E-3,2.2901779E-2,-2.2028708E-3,1.4896433E-2],"split_indices":[1,3,1,0,8,0,12,0,0,0,0],"split_type":[0,0,0,0,0,0,0,0,0,0,0],"sum_hessian":[1.5451112E2,2.4320795E1,1.3019032E2,7.112129E0,1.7208666E1,6.779959E0,1.2341036E2,1.012793E1,7.0807366E0,1.1264189E2,1.0768473E1],"tree_param":{"num_deleted":"0","num_feature":"13","num_nodes":"11","size_leaf_vector":"1"}},{"base_weights":[-1.6389145E-3,-2.6326022E-1,1.150505E-1,-9.67255E-2,-2.965479E-2,1.657438E-2,6.3348986E-2,-1.1043187E-2,8.946529E-3,-7.5622816E-3,4.053884E-3],"categories":[],"categories_nodes":[],"categories_segments":[],"categories_sizes":[],"default_left":[0,0,0,0,0,0,0,0,0,0,0],"id":91,"left_children":[1,3,5,7,-1,-1,9,-1,-1,-1,-1],"loss_changes":[4.800461E0,5.382188E0,2.164294E0,4.7714815E0,0E0,0E0,2.263873E0,0E0,0E0,0E0,0E0],"parents":[2147483647,0,0,1,1,2,2,3,3,6,6],"right_children":[2,4,6,8,-1,-1,10,-1,-1,-1,-1],"split_conditions":[9.758521E-1,1.2723871E-2,2.9429853E-2,1E0,-2.965479E-2,1.657438E-2,9.3272847E-1,-1.1043187E-2,8.946529E-3,-7.5622816E-3,4.053884E-3],"split_indices":[3,3,2,8,0,0,0,0,0,0,0],"split_type":[0,0,0,0,0,0,0,0,0,0,0],"sum_hessian":[1.5180484E2,4.684212E1,1.04962715E2,4.0274353E1,6.567768E0,8.433694E0,9.652902E1,2.4402176E1,1.5872178E1,1.6188583E1,8.034044E1],"tree_param":{"num_deleted":"0","num_feature":"13","num_nodes":"11","size_leaf_vector":"1"}},{"base_weights":[-4.944052E-2,-1.0959565E-1,4.5444763E-1,-2.0663984E-1,1.6814168E-1,2.6127754E-2,1.4122355E-3,-9.860791E-3,5.636249E-3,2.1495542E-2,6.4643787E-4],"categories":[],"categories_nodes":[],"categories_segments":[],"categories_sizes":[],"default_left":[0,0,0,0,0,0,0,0,0,0,0],"id":92,"left_children":[1,3,5,7,9,-1,-1,-1,-1,-1,-1],"loss_changes":[4.7272015E0,3.8969712E0,2.4424908E0,5.299528E0,2.7190151E0,0E0,0E0,0E0,0E0,0E0,0E0],"parents":[2147483647,0,0,1,1,2,2,3,3,4,4],"right_children":[2,4,6,8,10,-1,-1,-1,-1,-1,-1],"split_conditions":[1E0,1E0,2.5350744E-2,1E0,1.4544666E-2,2.6127754E-2,1.4122355E-3,-9.860791E-3,5.636249E-3,2.1495542E-2,6.4643787E-4],"split_indices":[12,4,8,10,0,0,0,0,0,0,0],"split_type":[0,0,0,0,0,0,0,0,0,0,0],"sum_hessian":[1.5408113E2,1.3957837E2,1.4502762E1,1.0461647E2,3.4961903E1,5.6817713E0,8.82099E0,8.073358E1,2.3882885E1,5.302887E0,2.9659016E1],"tree_param":{"num_deleted":"0","num_feature":"13","num_nodes":"11","size_leaf_vector":"1"}},{"base_weights":[2.3423472E-2,-1.8469033E-1,1.3077639E-1,-7.7322456E-3,-2.9623372E-2,3.099657E-1,-7.2020344E-2,-6.4867665E-3,9.307373E-3,-0E0,1.611438E-2,9.237065E-3,-1.1087256E-2],"categories":[],"categories_nodes":[],"categories_segments":[],"categories_sizes":[],"default_left":[0,0,0,0,0,0,0,0,0,0,0,0,0],"id":93,"left_children":[1,3,5,7,-1,9,11,-1,-1,-1,-1,-1,-1],"loss_changes":[3.4383802E0,7.0389996E0,3.848092E0,3.0716312E0,0E0,3.799409E0,5.787081E0,0E0,0E0,0E0,0E0,0E0,0E0],"parents":[2147483647,0,0,1,1,2,2,3,3,5,5,6,6],"right_children":[2,4,6,8,-1,10,12,-1,-1,-1,-1,-1,-1],"split_conditions":[1E0,1.2723871E-2,2.5350744E-2,1E0,-2.9623372E-2,2.6136363E-1,2.5117186E-1,-6.4867665E-3,9.307373E-3,-0E0,1.611438E-2,9.237065E-3,-1.1087256E-2],"split_indices":[3,3,8,8,0,2,2,0,0,0,0,0,0],"split_type":[0,0,0,0,0,0,0,0,0,0,0,0,0],"sum_hessian":[1.5046198E2,4.976074E1,1.0070123E2,4.2733593E1,7.0271454E0,5.368663E1,4.7014603E1,2.6766602E1,1.5966991E1,2.397471E1,2.9711922E1,2.0175919E1,2.6838684E1],"tree_param":{"num_deleted":"0","num_feature":"13","num_nodes":"13","size_leaf_vector":"1"}},{"base_weights":[3.6004048E-2,-1.4577153E-2,4.4777548E-1,4.1382724E-1,-9.119916E-2,2.0270126E-2,-0E0,6.442332E-3,1.8568061E-2,-3.5224646E-2,-4.990071E-4],"categories":[],"categories_nodes":[],"categories_segments":[],"categories_sizes":[],"default_left":[0,0,0,0,0,0,0,0,0,0,0],"id":94,"left_children":[1,3,5,7,9,-1,-1,-1,-1,-1,-1],"loss_changes":[3.3292656E0,4.4932137E0,1.5838814E0,3.2660294E-1,9.204927E0,0E0,0E0,0E0,0E0,0E0,0E0],"parents":[2147483647,0,0,1,1,2,2,3,3,4,4],"right_children":[2,4,6,8,10,-1,-1,-1,-1,-1,-1],